{"learner":{"attributes":{"scikit_learn":"{\"_estimator_type\": \"classifier\"}"},"feature_names":["Atrial_Fibrillation","Age","Diabetes","Cholesterol","Smoking","BMI","Previous_Stroke","Hypertension_Category","BMI_Hypertension","Cholesterol_Atrial_Fibrillation","BMI_Category_1","BMI_Category_2","BMI_Category_3","Cholesterol_Category_1","Cholesterol_Category_2","Age_Group_1","Age_Group_2"],"feature_types":["int","float","int","float","int","float","int","int","float","float","i","i","i","i","i","i","i"],"gradient_booster":{"model":{"gbtree_model_param":{"num_parallel_tree":"1","num_trees":"200"},"iteration_indptr":[0,1,2,3,4,5,6,7,8,9,10,11,12,13,14,15,16,17,18,19,20,21,22,23,24,25,26,27,28,29,30,31,32,33,34,35,36,37,38,39,40,41,42,43,44,45,46,47,48,49,50,51,52,53,54,55,56,57,58,59,60,61,62,63,64,65,66,67,68,69,70,71,72,73,74,75,76,77,78,79,80,81,82,83,84,85,86,87,88,89,90,91,92,93,94,95,96,97,98,99,100,101,102,103,104,105,106,107,108,109,110,111,112,113,114,115,116,117,118,119,120,121,122,123,124,125,126,127,128,129,130,131,132,133,134,135,136,137,138,139,140,141,142,143,144,145,146,147,148,149,150,151,152,153,154,155,156,157,158,159,160,161,162,163,164,165,166,167,168,169,170,171,172,173,174,175,176,177,178,179,180,181,182,183,184,185,186,187,188,189,190,191,192,193,194,195,196,197,198,199,200],"tree_info":[0,0,0,0,0,0,0,0,0,0,0,0,0,0,0,0,0,0,0,0,0,0,0,0,0,0,0,0,0,0,0,0,0,0,0,0,0,0,0,0,0,0,0,0,0,0,0,0,0,0,0,0,0,0,0,0,0,0,0,0,0,0,0,0,0,0,0,0,0,0,0,0,0,0,0,0,0,0,0,0,0,0,0,0,0,0,0,0,0,0,0,0,0,0,0,0,0,0,0,0,0,0,0,0,0,0,0,0,0,0,0,0,0,0,0,0,0,0,0,0,0,0,0,0,0,0,0,0,0,0,0,0,0,0,0,0,0,0,0,0,0,0,0,0,0,0,0,0,0,0,0,0,0,0,0,0,0,0,0,0,0,0,0,0,0,0,0,0,0,0,0,0,0,0,0,0,0,0,0,0,0,0,0,0,0,0,0,0,0,0,0,0,0,0,0,0,0,0,0,0],"trees":[{"base_weights":[-4.5146663E-3,-1.3267101E0,1.0774572E0,-1.9746743E-1,-5.478699E-1,1.8102711E-1,1.4240013E0,-9.758997E-2,8.755999E-2,-4.1618273E-2,9.518954E-2,-1.331668E-1,1.4729674E-1],"categories":[],"categories_nodes":[],"categories_segments":[],"categories_sizes":[],"default_left":[0,0,0,0,0,0,0,0,0,0,0,0,0],"id":0,"left_children":[1,3,5,-1,7,9,11,-1,-1,-1,-1,-1,-1],"loss_changes":[5.1178748E2,8.0168396E1,6.086302E1,0E0,4.6246346E1,2.6176851E1,2.108841E1,0E0,0E0,0E0,0E0,0E0,0E0],"parents":[2147483647,0,0,1,1,2,2,4,4,5,5,6,6],"right_children":[2,4,6,-1,8,10,12,-1,-1,-1,-1,-1,-1],"split_conditions":[1.4016762E-2,-6.0619396E-1,-4.019243E-1,-1.9746743E-1,7.096433E-1,2E0,-1.3864379E0,-9.758997E-2,8.755999E-2,-4.1618273E-2,9.518954E-2,-1.331668E-1,1.4729674E-1],"split_indices":[1,1,3,0,3,4,5,0,0,0,0,0,0],"split_type":[0,0,0,0,0,0,0,0,0,0,0,0,0],"sum_hessian":[3.5574945E2,1.5999976E2,1.957497E2,8.649986E1,7.3499886E1,5.4999916E1,1.4074979E2,5.6749912E1,1.6749973E1,3.1249952E1,2.3749964E1,1.9999969E0,1.3874979E2],"tree_param":{"num_deleted":"0","num_feature":"17","num_nodes":"13","size_leaf_vector":"1"}},{"base_weights":[2.2562077E-2,-1.2991061E0,9.406389E-1,-1.798628E-1,-5.2663803E-1,3.7172768E-1,1.4397974E0,-1.2549722E-1,3.0129328E-2,-1.8832518E-2,1.1418152E-1,8.9404695E-2,1.5979633E-1],"categories":[],"categories_nodes":[],"categories_segments":[],"categories_sizes":[],"default_left":[0,0,0,0,0,0,0,0,0,0,0,0,0],"id":1,"left_children":[1,3,5,-1,7,9,11,-1,-1,-1,-1,-1,-1],"loss_changes":[4.424204E2,5.6725403E1,6.056064E1,0E0,3.6624878E1,4.416115E1,8.433228E0,0E0,0E0,0E0,0E0,0E0,0E0],"parents":[2147483647,0,0,1,1,2,2,4,4,5,5,6,6],"right_children":[2,4,6,-1,8,10,12,-1,-1,-1,-1,-1,-1],"split_conditions":[-1.1002538E-1,-6.0619396E-1,2E0,-1.798628E-1,-1.9607846E-1,4.214591E-1,-4.225089E-1,-1.2549722E-1,3.0129328E-2,-1.8832518E-2,1.1418152E-1,8.9404695E-2,1.5979633E-1],"split_indices":[1,1,4,0,3,3,3,0,0,0,0,0,0],"split_type":[0,0,0,0,0,0,0,0,0,0,0,0,0],"sum_hessian":[3.6260718E2,1.4846342E2,2.1414375E2,8.9353775E1,5.9109657E1,1.00894684E2,1.1324908E2,3.1171864E1,2.7937794E1,5.885055E1,4.204413E1,2.6941202E1,8.630788E1],"tree_param":{"num_deleted":"0","num_feature":"17","num_nodes":"13","size_leaf_vector":"1"}},{"base_weights":[-1.1547209E-2,-1.1949699E0,8.243959E-1,-1.6651152E-1,-4.7919625E-1,1.4491457E0,4.9646094E-1,-1.1841642E-1,2.3984654E-2,6.8586744E-2,1.5536635E-1,-6.9240793E-3,1.0597291E-1],"categories":[],"categories_nodes":[],"categories_segments":[],"categories_sizes":[],"default_left":[0,0,0,0,0,0,0,0,0,0,0,0,0],"id":2,"left_children":[1,3,5,-1,7,9,11,-1,-1,-1,-1,-1,-1],"loss_changes":[3.5509894E2,4.9204483E1,4.2379654E1,0E0,3.0855347E1,4.6696167E0,4.4515686E1,0E0,0E0,0E0,0E0,0E0,0E0],"parents":[2147483647,0,0,1,1,2,2,4,4,5,5,6,6],"right_children":[2,4,6,-1,8,10,12,-1,-1,-1,-1,-1,-1],"split_conditions":[-1.1002538E-1,-6.0619396E-1,1E0,-1.6651152E-1,-1.9607846E-1,-8.1361604E-1,2E0,-1.1841642E-1,2.3984654E-2,6.8586744E-2,1.5536635E-1,-6.9240793E-3,1.0597291E-1],"split_indices":[1,1,2,0,3,3,4,0,0,0,0,0,0],"split_type":[0,0,0,0,0,0,0,0,0,0,0,0,0],"sum_hessian":[3.569532E2,1.4758768E2,2.093655E2,8.827756E1,5.9310123E1,7.08913E1,1.384742E2,2.9621544E1,2.968858E1,9.448972E0,6.144232E1,6.9525444E1,6.894875E1],"tree_param":{"num_deleted":"0","num_feature":"17","num_nodes":"13","size_leaf_vector":"1"}},{"base_weights":[-1.7469063E-2,-1.0363092E0,8.2153493E-1,-1.560603E-1,-4.1773742E-1,3.4239775E-1,1.230921E0,1.3528687E-1,-7.180678E-2,-2.7063775E-3,1.2307288E-1,-1.203223E-1,1.2783948E-1],"categories":[],"categories_nodes":[],"categories_segments":[],"categories_sizes":[],"default_left":[0,0,0,0,0,0,0,0,0,0,0,0,0],"id":3,"left_children":[1,3,5,-1,7,9,11,-1,-1,-1,-1,-1,-1],"loss_changes":[3.004201E2,5.081848E1,3.7385742E1,0E0,4.0413864E1,2.9634735E1,1.3504471E1,0E0,0E0,0E0,0E0,0E0,0E0],"parents":[2147483647,0,0,1,1,2,2,4,4,5,5,6,6],"right_children":[2,4,6,-1,8,10,12,-1,-1,-1,-1,-1,-1],"split_conditions":[1.4016762E-2,-6.0619396E-1,5.0936557E-2,-1.560603E-1,1E0,6.5971863E-1,-1.3864379E0,1.3528687E-1,-7.180678E-2,-2.7063775E-3,1.2307288E-1,-1.203223E-1,1.2783948E-1],"split_indices":[1,1,3,0,0,5,5,0,0,0,0,0,0],"split_type":[0,0,0,0,0,0,0,0,0,0,0,0,0],"sum_hessian":[3.4945023E2,1.5770583E2,1.9174442E2,8.453344E1,7.317238E1,8.919212E1,1.0255229E2,1.0103328E1,6.3069054E1,6.3677746E1,2.5514376E1,1.4961174E0,1.01056175E2],"tree_param":{"num_deleted":"0","num_feature":"17","num_nodes":"13","size_leaf_vector":"1"}},{"base_weights":[-2.1703634E-2,-9.4564545E-1,7.408149E-1,-1.4767735E-1,-3.5945764E-1,2.7837354E-1,1.1402178E0,1.1202376E-1,-6.3638E-2,1.3798751E-1,-2.251625E-3,-1.0527798E-1,1.1786151E-1],"categories":[],"categories_nodes":[],"categories_segments":[],"categories_sizes":[],"default_left":[0,0,0,0,0,0,0,0,0,0,0,0,0],"id":4,"left_children":[1,3,5,-1,7,9,11,-1,-1,-1,-1,-1,-1],"loss_changes":[2.394912E2,4.731848E1,3.408336E1,0E0,3.1190445E1,2.9076736E1,9.628876E0,0E0,0E0,0E0,0E0,0E0,0E0],"parents":[2147483647,0,0,1,1,2,2,4,4,5,5,6,6],"right_children":[2,4,6,-1,8,10,12,-1,-1,-1,-1,-1,-1],"split_conditions":[1.4016762E-2,-6.0619396E-1,5.0936557E-2,-1.4767735E-1,1E0,1E0,-1.3864379E0,1.1202376E-1,-6.3638E-2,1.3798751E-1,-2.251625E-3,-1.0527798E-1,1.1786151E-1],"split_indices":[1,1,3,0,0,0,5,0,0,0,0,0,0],"split_type":[0,0,0,0,0,0,0,0,0,0,0,0,0],"sum_hessian":[3.3793958E2,1.526879E2,1.852517E2,7.9309E1,7.337889E1,8.663727E1,9.8614426E1,1.1087753E1,6.2291138E1,1.7819052E1,6.8818214E1,1.2423366E0,9.7372086E1],"tree_param":{"num_deleted":"0","num_feature":"17","num_nodes":"13","size_leaf_vector":"1"}},{"base_weights":[-1.5773732E-3,-9.695759E-1,6.4794034E-1,-1.4088279E-1,-3.7319258E-1,2.074783E-1,1.0600433E0,-7.4033834E-2,7.9525106E-2,1.2673017E-1,-1.3067658E-2,7.6169975E-2,1.2869987E-1],"categories":[],"categories_nodes":[],"categories_segments":[],"categories_sizes":[],"default_left":[0,0,0,0,0,0,0,0,0,0,0,0,0],"id":5,"left_children":[1,3,5,-1,7,9,11,-1,-1,-1,-1,-1,-1],"loss_changes":[2.1016585E2,3.4636436E1,3.60912E1,0E0,2.559482E1,3.5265186E1,6.001053E0,0E0,0E0,0E0,0E0,0E0,0E0],"parents":[2147483647,0,0,1,1,2,2,4,4,5,5,6,6],"right_children":[2,4,6,-1,8,10,12,-1,-1,-1,-1,-1,-1],"split_conditions":[-1.1002538E-1,-6.0619396E-1,2E0,-1.4088279E-1,5.655512E-1,1E0,7.152114E-2,-7.4033834E-2,7.9525106E-2,1.2673017E-1,-1.3067658E-2,7.6169975E-2,1.2869987E-1],"split_indices":[1,1,4,0,3,0,3,0,0,0,0,0,0],"split_type":[0,0,0,0,0,0,0,0,0,0,0,0,0],"sum_hessian":[3.3227008E2,1.3322601E2,1.9904405E2,7.593534E1,5.7290676E1,9.693833E1,1.0210572E2,4.3871773E1,1.3418901E1,2.2783632E1,7.41547E1,4.5996822E1,5.6108894E1],"tree_param":{"num_deleted":"0","num_feature":"17","num_nodes":"13","size_leaf_vector":"1"}},{"base_weights":[7.479715E-3,-1.0279135E0,5.5567485E-1,-1.1111631E0,1.2717183E-1,1.2142512E0,2.4734265E-1,-1.3521944E-1,-6.2315326E-2,6.660229E-2,1.308453E-1,-2.5808007E-2,8.419558E-2],"categories":[],"categories_nodes":[],"categories_segments":[],"categories_sizes":[],"default_left":[0,0,0,0,0,0,0,0,0,0,0,0,0],"id":6,"left_children":[1,3,5,7,-1,9,11,-1,-1,-1,-1,-1,-1],"loss_changes":[1.8419586E2,2.292025E1,4.2782997E1,1.1972778E1,0E0,2.6094513E0,4.4025146E1,0E0,0E0,0E0,0E0,0E0,0E0],"parents":[2147483647,0,0,1,1,2,2,3,3,5,5,6,6],"right_children":[2,4,6,8,-1,10,12,-1,-1,-1,-1,-1,-1],"split_conditions":[-2.3406753E-1,1.471273E0,1E0,-6.0619396E-1,1.2717183E-1,-8.1361604E-1,2E0,-1.3521944E-1,-6.2315326E-2,6.660229E-2,1.308453E-1,-2.5808007E-2,8.419558E-2],"split_indices":[1,3,2,1,0,3,4,0,0,0,0,0,0],"split_type":[0,0,0,0,0,0,0,0,0,0,0,0,0],"sum_hessian":[3.2251215E2,1.1134199E2,2.1117017E2,1.07950836E2,3.3911524E0,6.640198E1,1.4476819E2,7.107539E1,3.6875446E1,1.0920108E1,5.5481873E1,7.855889E1,6.62093E1],"tree_param":{"num_deleted":"0","num_feature":"17","num_nodes":"13","size_leaf_vector":"1"}},{"base_weights":[2.4626289E-2,-1.3045453E-1,3.7671253E-1,-2.2759567E-1,7.505218E-1,1.076533E-1,-4.7111716E-2,-1.5689112E-1,8.335227E-2],"categories":[],"categories_nodes":[],"categories_segments":[],"categories_sizes":[],"default_left":[0,0,0,0,0,0,0,0,0],"id":7,"left_children":[1,-1,3,5,7,-1,-1,-1,-1],"loss_changes":[1.4772745E2,0E0,5.653354E1,3.1033943E1,3.1029198E1,0E0,0E0,0E0,0E0],"parents":[2147483647,0,0,2,2,3,3,4,4],"right_children":[2,-1,4,6,8,-1,-1,-1,-1],"split_conditions":[-6.0619396E-1,-1.3045453E-1,-2.3724765E-1,1E0,-1.3864379E0,1.076533E-1,-4.7111716E-2,-1.5689112E-1,8.335227E-2],"split_indices":[1,0,3,0,5,0,0,0,0],"split_type":[0,0,0,0,0,0,0,0,0],"sum_hessian":[3.1361832E2,6.5110916E1,2.4850739E2,9.512209E1,1.533853E2,1.442914E1,8.0692955E1,4.6807537E0,1.4870454E2],"tree_param":{"num_deleted":"0","num_feature":"17","num_nodes":"9","size_leaf_vector":"1"}},{"base_weights":[-6.7485687E-3,-8.525203E-1,5.1322937E-1,-1.2643564E-1,-3.805482E-1,1.1841626E-1,9.135526E-1,-5.8655806E-2,1.2752599E-1,1.1011356E-1,-1.6561916E-2,-1.3521692E-1,9.5695615E-2],"categories":[],"categories_nodes":[],"categories_segments":[],"categories_sizes":[],"default_left":[0,0,0,0,0,0,0,0,0,0,0,0,0],"id":8,"left_children":[1,3,5,-1,7,9,11,-1,-1,-1,-1,-1,-1],"loss_changes":[1.3633203E2,2.2459381E1,3.02351E1,0E0,1.9995743E1,2.7482407E1,1.0653687E1,0E0,0E0,0E0,0E0,0E0,0E0],"parents":[2147483647,0,0,1,1,2,2,4,4,5,5,6,6],"right_children":[2,4,6,-1,8,10,12,-1,-1,-1,-1,-1,-1],"split_conditions":[-1.1002538E-1,-6.0619396E-1,2E0,-1.2643564E-1,1.1443937E0,1E0,-1.4929074E0,-5.8655806E-2,1.2752599E-1,1.1011356E-1,-1.6561916E-2,-1.3521692E-1,9.5695615E-2],"split_indices":[1,1,4,0,5,0,3,0,0,0,0,0,0],"split_type":[0,0,0,0,0,0,0,0,0,0,0,0,0],"sum_hessian":[3.0800372E2,1.1702189E2,1.9098184E2,6.1595585E1,5.5426304E1,9.680503E1,9.41768E1,4.98677E1,5.558606E0,2.106087E1,7.574416E1,1.2034167E0,9.297339E1],"tree_param":{"num_deleted":"0","num_feature":"17","num_nodes":"13","size_leaf_vector":"1"}},{"base_weights":[-3.2921615E-3,-6.746658E-1,6.071225E-1,6.680506E-1,-8.486426E-1,3.3880097E-1,1.1636308E0,-9.150433E-2,1.0445364E-1,-9.387665E-2,1.1327411E-1,1.0475203E-1,1.2364943E-3,8.064873E-2,1.2813257E-1],"categories":[],"categories_nodes":[],"categories_segments":[],"categories_sizes":[],"default_left":[0,0,0,0,0,0,0,0,0,0,0,0,0,0,0],"id":9,"left_children":[1,3,5,7,9,11,13,-1,-1,-1,-1,-1,-1,-1,-1],"loss_changes":[1.20454834E2,3.3264233E1,2.2594658E1,1.085869E1,2.3269493E1,2.4344358E1,1.054512E0,0E0,0E0,0E0,0E0,0E0,0E0,0E0,0E0],"parents":[2147483647,0,0,1,1,2,2,3,3,4,4,5,5,6,6],"right_children":[2,4,6,8,10,12,14,-1,-1,-1,-1,-1,-1,-1,-1],"split_conditions":[1.3805892E-1,1E0,5.77375E-1,-7.302361E-1,1.471273E0,1E0,-3.6075515E-1,-9.150433E-2,1.0445364E-1,-9.387665E-2,1.1327411E-1,1.0475203E-1,1.2364943E-3,8.064873E-2,1.2813257E-1],"split_indices":[1,0,5,1,3,2,3,0,0,0,0,0,0,0,0],"split_type":[0,0,0,0,0,0,0,0,0,0,0,0,0,0,0],"sum_hessian":[2.9192447E2,1.3897046E2,1.52954E2,1.5615258E1,1.2335521E2,1.042827E2,4.86713E1,2.7252598E0,1.2889998E1,1.18491776E2,4.86343E0,3.2188934E1,7.2093765E1,1.4010118E1,3.4661182E1],"tree_param":{"num_deleted":"0","num_feature":"17","num_nodes":"15","size_leaf_vector":"1"}},{"base_weights":[-2.0557892E-2,-6.421386E-1,5.332568E-1,-1.2067238E-1,-2.625027E-1,3.716139E-2,8.29516E-1,1.02193944E-1,-4.9735826E-2,-1.948038E-2,1.2289988E-1,6.099233E-2,1.2230816E-1],"categories":[],"categories_nodes":[],"categories_segments":[],"categories_sizes":[],"default_left":[0,0,0,0,0,0,0,0,0,0,0,0,0],"id":10,"left_children":[1,3,5,-1,7,9,11,-1,-1,-1,-1,-1,-1],"loss_changes":[1.0142036E2,2.9433662E1,2.2871002E1,0E0,2.5929955E1,1.6636236E1,7.681633E0,0E0,0E0,0E0,0E0,0E0,0E0],"parents":[2147483647,0,0,1,1,2,2,4,4,5,5,6,6],"right_children":[2,4,6,-1,8,10,12,-1,-1,-1,-1,-1,-1],"split_conditions":[1.3805892E-1,-6.0619396E-1,-2.3724765E-1,-1.2067238E-1,1E0,1.0345047E0,5.2211416E-1,1.02193944E-1,-4.9735826E-2,-1.948038E-2,1.2289988E-1,6.099233E-2,1.2230816E-1],"split_indices":[1,1,3,0,0,5,5,0,0,0,0,0,0],"split_type":[0,0,0,0,0,0,0,0,0,0,0,0,0],"sum_hessian":[2.926259E2,1.3780229E2,1.5482358E2,5.4529186E1,8.327311E1,5.8308903E1,9.651467E1,1.2354437E1,7.091867E1,4.9509506E1,8.799396E0,6.35861E1,3.2928574E1],"tree_param":{"num_deleted":"0","num_feature":"17","num_nodes":"13","size_leaf_vector":"1"}},{"base_weights":[8.733201E-3,-1.1794665E-1,2.7098805E-1,9.8430705E-1,-3.6211053E-3,-1.2777117E-1,1.0615281E-1,-4.1871373E-2,5.5362172E-2],"categories":[],"categories_nodes":[],"categories_segments":[],"categories_sizes":[],"default_left":[0,0,0,0,0,0,0,0,0],"id":11,"left_children":[1,-1,3,5,7,-1,-1,-1,-1],"loss_changes":[8.8657104E1,0E0,4.5652878E1,1.2672024E1,3.938321E1,0E0,0E0,0E0,0E0],"parents":[2147483647,0,0,2,2,3,3,4,4],"right_children":[2,-1,4,6,8,-1,-1,-1,-1],"split_conditions":[-6.0619396E-1,-1.1794665E-1,1E0,-1.4929074E0,2E0,-1.2777117E-1,1.0615281E-1,-4.1871373E-2,5.5362172E-2],"split_indices":[1,0,2,3,4,0,0,0,0],"split_type":[0,0,0,0,0,0,0,0,0],"sum_hessian":[2.824863E2,5.044363E1,2.3204268E2,6.3781303E1,1.6826137E2,1.5922976E0,6.2189003E1,9.657261E1,7.168877E1],"tree_param":{"num_deleted":"0","num_feature":"17","num_nodes":"9","size_leaf_vector":"1"}},{"base_weights":[-2.719219E-2,-4.7632134E-1,5.760908E-1,-7.295998E-1,4.239425E-1,-1.4176132E-1,6.305159E-1,3.889062E-2,-8.786865E-2,-9.8901436E-2,6.9159165E-2,-1.3441783E-1,6.841751E-2],"categories":[],"categories_nodes":[],"categories_segments":[],"categories_sizes":[],"default_left":[0,0,0,0,0,0,0,0,0,0,0,0,0],"id":12,"left_children":[1,3,5,7,9,-1,11,-1,-1,-1,-1,-1,-1],"loss_changes":[7.532679E1,3.6639687E1,1.3769707E1,2.1138565E1,1.4153231E1,0E0,1.323254E1,0E0,0E0,0E0,0E0,0E0,0E0],"parents":[2147483647,0,0,1,1,2,2,3,3,4,4,6,6],"right_children":[2,4,6,8,10,-1,12,-1,-1,-1,-1,-1,-1],"split_conditions":[3.861432E-1,5.655512E-1,-1.4517382E0,1E0,-6.0619396E-1,-1.4176132E-1,-1.3864379E0,3.889062E-2,-8.786865E-2,-9.8901436E-2,6.9159165E-2,-1.3441783E-1,6.841751E-2],"split_indices":[1,3,3,0,1,0,5,0,0,0,0,0,0],"split_type":[0,0,0,0,0,0,0,0,0,0,0,0,0],"sum_hessian":[2.7599512E2,1.5833162E2,1.17663506E2,1.2371537E2,3.4616257E1,2.4611037E0,1.152024E2,1.4361473E1,1.093539E2,5.0836697E0,2.9532589E1,2.4113941E0,1.1279101E2],"tree_param":{"num_deleted":"0","num_feature":"17","num_nodes":"13","size_leaf_vector":"1"}},{"base_weights":[-1.5057814E-2,-1.139518E-1,2.0396565E-1,-1.7652977E-1,6.6664886E-1,1.21239595E-1,-3.438013E-2,-1.20331526E-1,7.272944E-2],"categories":[],"categories_nodes":[],"categories_segments":[],"categories_sizes":[],"default_left":[0,0,0,0,0,0,0,0,0],"id":13,"left_children":[1,-1,3,5,7,-1,-1,-1,-1],"loss_changes":[6.621321E1,0E0,3.9742504E1,2.9295055E1,1.2417408E1,0E0,0E0,0E0,0E0],"parents":[2147483647,0,0,2,2,3,3,4,4],"right_children":[2,-1,4,6,8,-1,-1,-1,-1],"split_conditions":[-6.0619396E-1,-1.139518E-1,1.5385948E-1,1E0,-1.3864379E0,1.21239595E-1,-3.438013E-2,-1.20331526E-1,7.272944E-2],"split_indices":[1,0,3,6,5,0,0,0,0],"split_type":[0,0,0,0,0,0,0,0,0],"sum_hessian":[2.6690622E2,4.2827633E1,2.2407858E2,1.2329955E2,1.0077902E2,1.2581554E1,1.10718E2,2.5738645E0,9.820516E1],"tree_param":{"num_deleted":"0","num_feature":"17","num_nodes":"9","size_leaf_vector":"1"}},{"base_weights":[1.7728882E-2,-1.1202591E-1,2.2635528E-1,5.6058294E-3,9.198912E-1,-3.5567332E-2,4.8202913E-2,4.567576E-2,1.12939194E-1],"categories":[],"categories_nodes":[],"categories_segments":[],"categories_sizes":[],"default_left":[0,0,0,0,0,0,0,0,0],"id":14,"left_children":[1,-1,3,5,7,-1,-1,-1,-1],"loss_changes":[6.2799458E1,0E0,3.4206543E1,2.9520842E1,4.7185364E0,0E0,0E0,0E0,0E0],"parents":[2147483647,0,0,2,2,3,3,4,4],"right_children":[2,-1,4,6,8,-1,-1,-1,-1],"split_conditions":[-6.0619396E-1,-1.1202591E-1,7.019772E-1,2E0,-2.990014E-1,-3.5567332E-2,4.8202913E-2,4.567576E-2,1.12939194E-1],"split_indices":[1,0,5,4,3,0,0,0,0],"split_type":[0,0,0,0,0,0,0,0,0],"sum_hessian":[2.624461E2,3.9982906E1,2.224632E2,1.6951529E2,5.29479E1,9.6551926E1,7.296337E1,1.7481834E1,3.5466064E1],"tree_param":{"num_deleted":"0","num_feature":"17","num_nodes":"9","size_leaf_vector":"1"}},{"base_weights":[-6.1851093E-3,-4.2325315E-1,5.4079425E-1,-6.8274754E-1,2.7419564E-1,-1.3130069E-1,5.948005E-1,3.6619592E-2,-8.2893476E-2,-9.678202E-2,5.1795114E-2,1.21419705E-1,3.750808E-2],"categories":[],"categories_nodes":[],"categories_segments":[],"categories_sizes":[],"default_left":[0,0,0,0,0,0,0,0,0,0,0,0,0],"id":15,"left_children":[1,3,5,7,9,-1,11,-1,-1,-1,-1,-1,-1],"loss_changes":[5.788382E1,2.6240768E1,1.1771397E1,1.6435944E1,1.2535454E1,0E0,1.4155144E1,0E0,0E0,0E0,0E0,0E0,0E0],"parents":[2147483647,0,0,1,1,2,2,3,3,4,4,6,6],"right_children":[2,4,6,8,10,-1,12,-1,-1,-1,-1,-1,-1],"split_conditions":[3.861432E-1,4.008745E-1,-1.4517382E0,1E0,-6.0619396E-1,-1.3130069E-1,-3.1785432E-1,3.6619592E-2,-8.2893476E-2,-9.678202E-2,5.1795114E-2,1.21419705E-1,3.750808E-2],"split_indices":[1,3,3,0,1,0,9,0,0,0,0,0,0],"split_type":[0,0,0,0,0,0,0,0,0,0,0,0,0],"sum_hessian":[2.5173105E2,1.4295502E2,1.0877603E2,1.0420525E2,3.8749763E1,2.4193113E0,1.0635672E2,1.2562196E1,9.164306E1,5.86995E0,3.2879814E1,2.6663984E1,7.969273E1],"tree_param":{"num_deleted":"0","num_feature":"17","num_nodes":"13","size_leaf_vector":"1"}},{"base_weights":[2.738835E-2,-1.0910523E-1,2.1457422E-1,8.693026E-1,-3.165192E-2,-1.14850245E-1,9.5057525E-2,1.1601645E-1,-1.8469699E-2],"categories":[],"categories_nodes":[],"categories_segments":[],"categories_sizes":[],"default_left":[0,0,0,0,0,0,0,0,0],"id":16,"left_children":[1,-1,3,5,7,-1,-1,-1,-1],"loss_changes":[5.237122E1,0E0,3.455366E1,1.0696098E1,2.8778597E1,0E0,0E0,0E0,0E0],"parents":[2147483647,0,0,2,2,3,3,4,4],"right_children":[2,-1,4,6,8,-1,-1,-1,-1],"split_conditions":[-6.0619396E-1,-1.0910523E-1,1E0,-1.4929074E0,1E0,-1.14850245E-1,9.5057525E-2,1.1601645E-1,-1.8469699E-2],"split_indices":[1,0,2,3,6,0,0,0,0],"split_type":[0,0,0,0,0,0,0,0,0],"sum_hessian":[2.4803531E2,3.4868195E1,2.1316711E2,5.7565884E1,1.5560123E2,1.7204244E0,5.584546E1,1.6958536E1,1.386427E2],"tree_param":{"num_deleted":"0","num_feature":"17","num_nodes":"9","size_leaf_vector":"1"}},{"base_weights":[-3.0383032E-3,-1.07627645E-1,1.6594769E-1,-3.812215E-2,9.1383386E-1,7.1001254E-2,-2.8509954E-2,6.0739137E-2,1.13161944E-1],"categories":[],"categories_nodes":[],"categories_segments":[],"categories_sizes":[],"default_left":[0,0,0,0,0,0,0,0,0],"id":17,"left_children":[1,-1,3,5,7,-1,-1,-1,-1],"loss_changes":[4.4217445E1,0E0,3.2185463E1,3.095932E1,2.3291435E0,0E0,0E0,0E0,0E0],"parents":[2147483647,0,0,2,2,3,3,4,4],"right_children":[2,-1,4,6,8,-1,-1,-1,-1],"split_conditions":[-6.0619396E-1,-1.07627645E-1,7.8559995E-1,1E0,1.3932393E0,7.1001254E-2,-2.8509954E-2,6.0739137E-2,1.13161944E-1],"split_indices":[1,0,5,2,5,0,0,0,0],"split_type":[0,0,0,0,0,0,0,0,0],"sum_hessian":[2.4182259E2,3.2165966E1,2.0965662E2,1.6545833E2,4.419829E1,4.059988E1,1.2485845E2,1.9935839E1,2.4262451E1],"tree_param":{"num_deleted":"0","num_feature":"17","num_nodes":"9","size_leaf_vector":"1"}},{"base_weights":[-6.0871216E-3,-1.0632514E-1,1.4946437E-1,-3.0562043E-1,4.817381E-1,-6.283503E-2,2.3328817E-2,-1.2936233E-1,5.5047203E-2],"categories":[],"categories_nodes":[],"categories_segments":[],"categories_sizes":[],"default_left":[0,0,0,0,0,0,0,0,0],"id":18,"left_children":[1,-1,3,5,7,-1,-1,-1,-1],"loss_changes":[3.965106E1,0E0,3.1936512E1,1.5683147E1,1.5587055E1,0E0,0E0,0E0,0E0],"parents":[2147483647,0,0,2,2,3,3,4,4],"right_children":[2,-1,4,6,8,-1,-1,-1,-1],"split_conditions":[-6.0619396E-1,-1.0632514E-1,-2.3724765E-1,5.7220644E-1,-1.3864379E0,-6.283503E-2,2.3328817E-2,-1.2936233E-1,5.5047203E-2],"split_indices":[1,0,3,1,5,0,0,0,0],"split_type":[0,0,0,0,0,0,0,0,0],"sum_hessian":[2.391563E2,2.9927391E1,2.0922891E2,8.833069E1,1.2089822E2,5.51423E1,3.318839E1,3.841951E0,1.1705627E2],"tree_param":{"num_deleted":"0","num_feature":"17","num_nodes":"9","size_leaf_vector":"1"}},{"base_weights":[-1.8556574E-2,-3.080809E-1,5.3243876E-1,-6.293976E-1,2.0441036E-1,-1.0832335E-1,5.807009E-1,-8.188384E-2,3.2279562E-2,-9.6190535E-2,3.9355304E-2,-1.0935583E-1,6.294086E-2],"categories":[],"categories_nodes":[],"categories_segments":[],"categories_sizes":[],"default_left":[0,0,0,0,0,0,0,0,0,0,0,0,0],"id":19,"left_children":[1,3,5,7,9,-1,11,-1,-1,-1,-1,-1,-1],"loss_changes":[3.6944782E1,2.5121958E1,6.8503704E0,1.7136173E1,1.3447667E1,0E0,7.0591316E0,0E0,0E0,0E0,0E0,0E0,0E0],"parents":[2147483647,0,0,1,1,2,2,3,3,4,4,6,6],"right_children":[2,4,6,8,10,-1,12,-1,-1,-1,-1,-1,-1],"split_conditions":[5.7220644E-1,2E0,-1.4517382E0,8.125662E-1,-6.0619396E-1,-1.0832335E-1,-1.4362189E0,-8.188384E-2,3.2279562E-2,-9.6190535E-2,3.9355304E-2,-1.0935583E-1,6.294086E-2],"split_indices":[1,4,3,3,1,0,5,0,0,0,0,0,0],"split_type":[0,0,0,0,0,0,0,0,0,0,0,0,0],"sum_hessian":[2.2956189E2,1.507763E2,7.878559E1,9.253286E1,5.8243443E1,1.6631573E0,7.712244E1,7.729492E1,1.5237934E1,7.5572643E0,5.0686176E1,1.5738013E0,7.554863E1],"tree_param":{"num_deleted":"0","num_feature":"17","num_nodes":"13","size_leaf_vector":"1"}},{"base_weights":[-1.5099133E-2,1.0476443E0,-1.5032242E-1,4.185162E-1,1.11904E0,7.22237E-1,-3.2477394E-1,-3.939792E-2,1.0761249E-1,3.456379E-2,1.1451695E-1,-9.8104194E-2,8.112365E-2,-4.648974E-2,7.424135E-2],"categories":[],"categories_nodes":[],"categories_segments":[],"categories_sizes":[],"default_left":[0,0,0,0,0,0,0,0,0,0,0,0,0,0,0],"id":20,"left_children":[1,3,5,7,9,11,13,-1,-1,-1,-1,-1,-1,-1,-1],"loss_changes":[3.303611E1,6.972828E-1,3.1262608E1,2.6906202E0,6.308746E-2,5.99139E0,2.585101E1,0E0,0E0,0E0,0E0,0E0,0E0,0E0,0E0],"parents":[2147483647,0,0,1,1,2,2,3,3,4,4,5,5,6,6],"right_children":[2,4,6,8,10,12,14,-1,-1,-1,-1,-1,-1,-1,-1],"split_conditions":[1E0,-2.3406753E-1,1E0,4.5811912E-1,-1.4311537E0,-1.7399224E0,1.1697649E0,-3.939792E-2,1.0761249E-1,3.456379E-2,1.1451695E-1,-9.8104194E-2,8.112365E-2,-4.648974E-2,7.424135E-2],"split_indices":[6,1,0,5,3,3,5,0,0,0,0,0,0,0,0],"split_type":[0,0,0,0,0,0,0,0,0,0,0,0,0,0,0],"sum_hessian":[2.2778825E2,2.495049E1,2.0283777E2,3.2422464E0,2.1708244E1,3.327336E1,1.695644E2,1.6296525E0,1.6125938E0,1.1744285E0,2.0533815E1,1.1545475E0,3.2118813E1,1.5038321E2,1.9181192E1],"tree_param":{"num_deleted":"0","num_feature":"17","num_nodes":"15","size_leaf_vector":"1"}},{"base_weights":[1.750619E-2,-4.449168E-1,3.3249944E-1,5.626938E-1,-6.15967E-1,-1.3570797E-1,3.917077E-1,-6.740333E-2,7.791448E-2,-6.987261E-2,8.941221E-2,8.869964E-2,1.9454688E-2],"categories":[],"categories_nodes":[],"categories_segments":[],"categories_sizes":[],"default_left":[0,0,0,0,0,0,0,0,0,0,0,0,0],"id":21,"left_children":[1,3,5,7,9,-1,11,-1,-1,-1,-1,-1,-1],"loss_changes":[3.2318848E1,1.5843946E1,1.3731071E1,4.1581507E0,1.0290869E1,0E0,1.2351711E1,0E0,0E0,0E0,0E0,0E0,0E0],"parents":[2147483647,0,0,1,1,2,2,3,3,4,4,6,6],"right_children":[2,4,6,8,10,-1,12,-1,-1,-1,-1,-1,-1],"split_conditions":[7.603784E-2,1E0,-1.4517382E0,-7.922572E-1,1.471273E0,-1.3570797E-1,1E0,-6.740333E-2,7.791448E-2,-6.987261E-2,8.941221E-2,8.869964E-2,1.9454688E-2],"split_indices":[1,0,3,1,3,0,2,0,0,0,0,0,0],"split_type":[0,0,0,0,0,0,0,0,0,0,0,0,0],"sum_hessian":[2.1986288E2,8.891685E1,1.3094604E2,1.2571554E1,7.634529E1,3.6912525E0,1.2725479E2,1.5576501E0,1.1013904E1,7.288802E1,3.457271E0,3.523697E1,9.2017815E1],"tree_param":{"num_deleted":"0","num_feature":"17","num_nodes":"13","size_leaf_vector":"1"}},{"base_weights":[-1.6775876E-2,-1.02823235E-1,1.05363265E-1,-1.9502515E-1,4.8222375E-1,6.710075E-2,-3.7376475E-2,-1.102736E-1,5.394357E-2],"categories":[],"categories_nodes":[],"categories_segments":[],"categories_sizes":[],"default_left":[0,0,0,0,0,0,0,0,0],"id":22,"left_children":[1,-1,3,5,7,-1,-1,-1,-1],"loss_changes":[2.6695635E1,0E0,2.1934996E1,1.6979641E1,8.38072E0,0E0,0E0,0E0,0E0],"parents":[2147483647,0,0,2,2,3,3,4,4],"right_children":[2,-1,4,6,8,-1,-1,-1,-1],"split_conditions":[-6.0619396E-1,-1.02823235E-1,2E0,1E0,-1.4517382E0,6.710075E-2,-3.7376475E-2,-1.102736E-1,5.394357E-2],"split_indices":[1,0,4,0,3,0,0,0,0],"split_type":[0,0,0,0,0,0,0,0,0],"sum_hessian":[2.142148E2,2.2281242E1,1.9193356E2,1.07071434E2,8.486213E1,1.7846603E1,8.922483E1,2.319858E0,8.254227E1],"tree_param":{"num_deleted":"0","num_feature":"17","num_nodes":"9","size_leaf_vector":"1"}},{"base_weights":[1.2308729E-2,-4.0716803E-1,3.2881385E-1,8.950889E-1,-5.243832E-1,1.1284473E-1,8.2356644E-1,-8.28776E-3,1.2182528E-1,-6.339086E-2,1.008866E-1,-1.9533796E-2,5.0038457E-2,6.125149E-2,9.857597E-2],"categories":[],"categories_nodes":[],"categories_segments":[],"categories_sizes":[],"default_left":[0,0,0,0,0,0,0,0,0,0,0,0,0,0,0],"id":23,"left_children":[1,3,5,7,9,11,13,-1,-1,-1,-1,-1,-1,-1,-1],"loss_changes":[2.8271856E1,1.4449842E1,1.28731575E1,2.6079798E0,1.4855804E1,1.0325013E1,6.5301895E-1,0E0,0E0,0E0,0E0,0E0,0E0,0E0,0E0],"parents":[2147483647,0,0,1,1,2,2,3,3,4,4,5,5,6,6],"right_children":[2,4,6,8,10,12,14,-1,-1,-1,-1,-1,-1,-1,-1],"split_conditions":[1.3805892E-1,1E0,5.2211416E-1,-4.9791646E-1,1.471273E0,2E0,2.3981306E-1,-8.28776E-3,1.2182528E-1,-6.339086E-2,1.008866E-1,-1.9533796E-2,5.0038457E-2,6.125149E-2,9.857597E-2],"split_indices":[1,6,5,5,3,4,9,0,0,0,0,0,0,0,0],"split_type":[0,0,0,0,0,0,0,0,0,0,0,0,0,0,0],"sum_hessian":[2.1093575E2,9.0588615E1,1.2034713E2,6.9324956E0,8.365612E1,8.463179E1,3.571534E1,1.9065105E0,5.0259852E0,7.862614E1,5.0299826E0,4.7418896E1,3.72129E1,1.7595684E1,1.8119654E1],"tree_param":{"num_deleted":"0","num_feature":"17","num_nodes":"15","size_leaf_vector":"1"}},{"base_weights":[-2.9688685E-3,7.7847934E-1,-1.5500185E-1,-9.825968E-2,8.6746293E-1,9.0298206E-1,-2.7412346E-1,-5.676673E-3,9.5313616E-2,2.3415206E-2,1.0325339E-1,-3.7992917E-2,9.819566E-2],"categories":[],"categories_nodes":[],"categories_segments":[],"categories_sizes":[],"default_left":[0,0,0,0,0,0,0,0,0,0,0,0,0],"id":24,"left_children":[1,3,5,-1,7,9,11,-1,-1,-1,-1,-1,-1],"loss_changes":[2.504257E1,6.2322025E0,2.2483957E1,0E0,2.6837673E0,1.3255501E0,2.1550896E1,0E0,0E0,0E0,0E0,0E0,0E0],"parents":[2147483647,0,0,1,1,2,2,4,4,5,5,6,6],"right_children":[2,4,6,-1,8,10,12,-1,-1,-1,-1,-1,-1],"split_conditions":[1E0,-1.513492E0,1E0,-9.825968E-2,-5.441729E-1,-1.1002538E-1,1.4301038E0,-5.676673E-3,9.5313616E-2,2.3415206E-2,1.0325339E-1,-3.7992917E-2,9.819566E-2],"split_indices":[0,3,6,0,1,1,3,0,0,0,0,0,0],"split_type":[0,0,0,0,0,0,0,0,0,0,0,0,0],"sum_hessian":[2.0876993E2,3.3330574E1,1.7543935E2,1.120105E0,3.2210472E1,1.7088322E1,1.5835103E2,2.7611365E0,2.9449333E1,3.2284386E0,1.3859882E1,1.4669197E2,1.1659049E1],"tree_param":{"num_deleted":"0","num_feature":"17","num_nodes":"13","size_leaf_vector":"1"}},{"base_weights":[3.7427258E-2,-1.0082042E-1,1.4894299E-1,7.24737E-1,-4.4877023E-2,-7.7087544E-2,7.758555E-2,9.2415124E-2,-1.513094E-2],"categories":[],"categories_nodes":[],"categories_segments":[],"categories_sizes":[],"default_left":[0,0,0,0,0,0,0,0,0],"id":25,"left_children":[1,-1,3,5,7,-1,-1,-1,-1],"loss_changes":[2.421438E1,0E0,2.0941702E1,4.2099457E0,1.4693868E1,0E0,0E0,0E0,0E0],"parents":[2147483647,0,0,2,2,3,3,4,4],"right_children":[2,-1,4,6,8,-1,-1,-1,-1],"split_conditions":[-6.0619396E-1,-1.0082042E-1,1E0,-1.4929074E0,1E0,-7.7087544E-2,7.758555E-2,9.2415124E-2,-1.513094E-2],"split_indices":[1,0,2,3,6,0,0,0,0],"split_type":[0,0,0,0,0,0,0,0,0],"sum_hessian":[2.0537488E2,1.9017323E1,1.8635756E2,4.6242542E1,1.40115E2,1.0629462E0,4.5179596E1,1.3106063E1,1.2700895E2],"tree_param":{"num_deleted":"0","num_feature":"17","num_nodes":"9","size_leaf_vector":"1"}},{"base_weights":[-5.07823E-3,-1.0105318E-1,1.0463868E0,8.568067E-1,-2.0581041E-1,5.2031296E-1,1.1472557E-1,8.809233E-3,9.137794E-2,3.723265E-2,-3.7513837E-2,4.682617E-4,8.2727075E-2],"categories":[],"categories_nodes":[],"categories_segments":[],"categories_sizes":[],"default_left":[0,0,0,0,0,0,0,0,0,0,0,0,0],"id":26,"left_children":[1,3,5,7,9,11,-1,-1,-1,-1,-1,-1,-1],"loss_changes":[2.029944E1,1.8667685E1,2.9590988E-1,7.2363377E-1,1.6480349E1,7.14226E-1,0E0,0E0,0E0,0E0,0E0,0E0,0E0],"parents":[2147483647,0,0,1,1,2,2,3,3,4,4,5,5],"right_children":[2,4,6,8,10,12,-1,-1,-1,-1,-1,-1,-1],"split_conditions":[1.471273E0,1E0,-6.3832456E-1,-1.4311537E0,1E0,5.7220644E-1,1.1472557E-1,8.809233E-3,9.137794E-2,3.723265E-2,-3.7513837E-2,4.682617E-4,8.2727075E-2],"split_indices":[3,6,5,3,2,1,0,0,0,0,0,0,0],"split_type":[0,0,0,0,0,0,0,0,0,0,0,0,0],"sum_hessian":[1.991074E2,1.8328183E2,1.5825586E1,1.7360954E1,1.6592087E2,3.5369895E0,1.2288597E1,1.3735996E0,1.5987354E1,3.7315525E1,1.2860535E2,1.6987199E0,1.8382696E0],"tree_param":{"num_deleted":"0","num_feature":"17","num_nodes":"13","size_leaf_vector":"1"}},{"base_weights":[-1.06105795E-2,5.451801E-1,-1.8856844E-1,-7.9083785E-2,6.4999837E-1,-3.4489194E-1,5.0412893E-1,-9.497803E-2,7.226199E-2,4.414363E-2,-4.835352E-2,-6.0697485E-2,5.8252167E-2],"categories":[],"categories_nodes":[],"categories_segments":[],"categories_sizes":[],"default_left":[0,0,0,0,0,0,0,0,0,0,0,0,0],"id":27,"left_children":[1,3,5,-1,7,9,11,-1,-1,-1,-1,-1,-1],"loss_changes":[1.9743622E1,7.2945433E0,1.6542145E1,0E0,5.966072E0,1.3723247E1,2.8131762E0,0E0,0E0,0E0,0E0,0E0,0E0],"parents":[2147483647,0,0,1,1,2,2,4,4,5,5,6,6],"right_children":[2,4,6,-1,8,10,12,-1,-1,-1,-1,-1,-1],"split_conditions":[1E0,-6.0619396E-1,7.8559995E-1,-7.9083785E-2,-1.4929074E0,1E0,-6.0619396E-1,-9.497803E-2,7.226199E-2,4.414363E-2,-4.835352E-2,-6.0697485E-2,5.8252167E-2],"split_indices":[2,1,5,0,3,0,1,0,0,0,0,0,0],"split_type":[0,0,0,0,0,0,0,0,0,0,0,0,0],"sum_hessian":[1.97578E2,4.7418613E1,1.501594E2,2.9734952E0,4.4445118E1,1.2292139E2,2.7238005E1,1.405473E0,4.3039642E1,1.8097237E1,1.0482415E2,1.3507221E0,2.5887283E1],"tree_param":{"num_deleted":"0","num_feature":"17","num_nodes":"13","size_leaf_vector":"1"}},{"base_weights":[6.108446E-3,-2.1209851E-1,4.568014E-1,-4.3939272E-1,2.4446954E-1,2.543322E-1,1.0315559E-1,-7.115201E-2,-4.46956E-3,7.420371E-3,9.869614E-2,-1.6178163E-3,6.587122E-2],"categories":[],"categories_nodes":[],"categories_segments":[],"categories_sizes":[],"default_left":[0,0,0,0,0,0,0,0,0,0,0,0,0],"id":28,"left_children":[1,3,5,7,9,11,-1,-1,-1,-1,-1,-1,-1],"loss_changes":[1.9713549E1,1.4125557E1,7.3467827E0,9.693153E0,5.6839E0,5.4452143E0,0E0,0E0,0E0,0E0,0E0,0E0,0E0],"parents":[2147483647,0,0,1,1,2,2,3,3,4,4,5,5],"right_children":[2,4,6,8,10,12,-1,-1,-1,-1,-1,-1,-1],"split_conditions":[4.008745E-1,5.7220644E-1,1.471273E0,2E0,1.0345047E0,2E0,1.0315559E-1,-7.115201E-2,-4.46956E-3,7.420371E-3,9.869614E-2,-1.6178163E-3,6.587122E-2],"split_indices":[3,1,3,4,5,4,0,0,0,0,0,0,0],"split_type":[0,0,0,0,0,0,0,0,0,0,0,0,0],"sum_hessian":[1.9846913E2,1.340817E2,6.4387436E1,8.954229E1,4.4539402E1,4.8681034E1,1.57064E1,5.252546E1,3.7016834E1,3.712578E1,7.413624E0,2.9743849E1,1.8937187E1],"tree_param":{"num_deleted":"0","num_feature":"17","num_nodes":"13","size_leaf_vector":"1"}},{"base_weights":[-1.982844E-2,-2.606119E-1,4.124788E-1,-4.6016464E-1,2.858538E-1,-1.0717573E-1,4.7018078E-1,-8.455757E-2,-1.9917617E-2,4.6640444E-3,1.01101756E-1,9.936562E-2,3.6894422E-2],"categories":[],"categories_nodes":[],"categories_segments":[],"categories_sizes":[],"default_left":[0,0,0,0,0,0,0,0,0,0,0,0,0],"id":29,"left_children":[1,3,5,7,9,-1,11,-1,-1,-1,-1,-1,-1],"loss_changes":[2.002045E1,1.3596862E1,6.3979635E0,8.968313E0,5.7894654E0,0E0,3.1808987E0,0E0,0E0,0E0,0E0,0E0,0E0],"parents":[2147483647,0,0,1,1,2,2,3,3,4,4,6,6],"right_children":[2,4,6,8,10,-1,12,-1,-1,-1,-1,-1,-1],"split_conditions":[5.7220644E-1,4.6757373E-1,-1.4362189E0,-4.019243E-1,7.508125E-1,-1.0717573E-1,-1.0016403E0,-8.455757E-2,-1.9917617E-2,4.6640444E-3,1.01101756E-1,9.936562E-2,3.6894422E-2],"split_indices":[1,5,5,3,3,0,5,0,0,0,0,0,0],"split_type":[0,0,0,0,0,0,0,0,0,0,0,0,0],"sum_hessian":[1.9030067E2,1.22479866E2,6.7820816E1,8.983337E1,3.26465E1,1.8803207E0,6.594049E1,3.5366497E1,5.446687E1,2.5348862E1,7.2976384E0,9.257337E0,5.6683155E1],"tree_param":{"num_deleted":"0","num_feature":"17","num_nodes":"13","size_leaf_vector":"1"}},{"base_weights":[2.7674437E-2,-9.834165E-2,1.2172259E-1,-1.262026E-1,1.7859928E-1,1.4056616E-1,1.0383098E-2],"categories":[],"categories_nodes":[],"categories_segments":[],"categories_sizes":[],"default_left":[0,0,0,0,0,0,0],"id":30,"left_children":[1,-1,3,-1,5,-1,-1],"loss_changes":[1.8024351E1,0E0,1.3853258E1,0E0,1.5193434E1,0E0,0E0],"parents":[2147483647,0,0,2,2,4,4],"right_children":[2,-1,4,-1,6,-1,-1],"split_conditions":[-6.0619396E-1,-9.834165E-2,-1.3864379E0,-1.262026E-1,-1.3647952E0,1.4056616E-1,1.0383098E-2],"split_indices":[1,0,5,0,5,0,0],"split_type":[0,0,0,0,0,0,0],"sum_hessian":[1.8728912E2,1.5133687E1,1.7215544E2,5.960248E0,1.6619519E2,8.522799E0,1.576724E2],"tree_param":{"num_deleted":"0","num_feature":"17","num_nodes":"7","size_leaf_vector":"1"}},{"base_weights":[1.9853815E-2,-1.0141968E-1,7.601291E-1,6.268373E-1,-2.3363893E-1,9.851118E-1,5.997718E-1,-9.631055E-2,7.539655E-2,6.867881E-2,-3.23057E-2,1.093694E-1,1.7727703E-2,-9.206099E-3,7.881203E-2],"categories":[],"categories_nodes":[],"categories_segments":[],"categories_sizes":[],"default_left":[0,0,0,0,0,0,0,0,0,0,0,0,0,0,0],"id":31,"left_children":[1,3,5,7,9,11,13,-1,-1,-1,-1,-1,-1,-1,-1],"loss_changes":[1.6744236E1,1.5591534E1,3.5621834E-1,5.7628717E0,1.1454861E1,6.2780666E-1,2.4028182E0,0E0,0E0,0E0,0E0,0E0,0E0,0E0,0E0],"parents":[2147483647,0,0,1,1,2,2,3,3,4,4,5,5,6,6],"right_children":[2,4,6,8,10,12,14,-1,-1,-1,-1,-1,-1,-1,-1],"split_conditions":[1.069226E0,1E0,-8.191812E-2,-1.513492E0,1E0,7.7139705E-1,-4.019243E-1,-9.631055E-2,7.539655E-2,6.867881E-2,-3.23057E-2,1.093694E-1,1.7727703E-2,-9.206099E-3,7.881203E-2],"split_indices":[5,0,9,3,6,3,3,0,0,0,0,0,0,0,0],"split_type":[0,0,0,0,0,0,0,0,0,0,0,0,0,0,0],"sum_hessian":[1.8465302E2,1.5940237E2,2.5250643E1,2.3918665E1,1.354837E2,8.3675995E0,1.6883043E1,1.2840232E0,2.2634642E1,1.1405037E1,1.24078674E2,7.0642285E0,1.3033715E0,3.7221696E0,1.3160873E1],"tree_param":{"num_deleted":"0","num_feature":"17","num_nodes":"15","size_leaf_vector":"1"}},{"base_weights":[-2.860319E-3,-9.763955E-2,8.438482E-2,-8.769366E-2,5.413618E-1,-1.2153615E-1,-1.9127921E-3,3.690594E-2,1.12179816E-1],"categories":[],"categories_nodes":[],"categories_segments":[],"categories_sizes":[],"default_left":[0,0,0,0,0,0,0,0,0],"id":32,"left_children":[1,-1,3,5,7,-1,-1,-1,-1],"loss_changes":[1.5977285E1,0E0,1.3625388E1,9.741823E0,4.32378E0,0E0,0E0,0E0,0E0],"parents":[2147483647,0,0,2,2,3,3,4,4],"right_children":[2,-1,4,6,8,-1,-1,-1,-1],"split_conditions":[-6.0619396E-1,-9.763955E-2,5.1615036E-1,-1.3864379E0,8.189292E-1,-1.2153615E-1,-1.9127921E-3,3.690594E-2,1.12179816E-1],"split_indices":[1,0,5,5,9,0,0,0,0],"split_type":[0,0,0,0,0,0,0,0,0],"sum_hessian":[1.8613916E2,1.4471032E1,1.7166814E2,1.25295265E2,4.637287E1,6.2230043E0,1.1907226E2,3.7019478E1,9.353394E0],"tree_param":{"num_deleted":"0","num_feature":"17","num_nodes":"9","size_leaf_vector":"1"}},{"base_weights":[2.3963017E-2,-9.635117E-2,1.0361263E-1,-1.18451826E-1,1.5970954E-1,8.413054E-2,3.117978E-4],"categories":[],"categories_nodes":[],"categories_segments":[],"categories_sizes":[],"default_left":[0,0,0,0,0,0,0],"id":33,"left_children":[1,-1,3,-1,5,-1,-1],"loss_changes":[1.4386165E1,0E0,1.240008E1,0E0,1.7374907E1,0E0,0E0],"parents":[2147483647,0,0,2,2,4,4],"right_children":[2,-1,4,-1,6,-1,-1],"split_conditions":[-6.0619396E-1,-9.635117E-2,-1.4517382E0,-1.18451826E-1,-3.1785432E-1,8.413054E-2,3.117978E-4],"split_indices":[1,0,3,0,9,0,0],"split_type":[0,0,0,0,0,0,0],"sum_hessian":[1.8063985E2,1.26546E1,1.6798524E2,6.170853E0,1.6181439E2,2.9413536E1,1.3240085E2],"tree_param":{"num_deleted":"0","num_feature":"17","num_nodes":"7","size_leaf_vector":"1"}},{"base_weights":[-2.4752289E-3,-1.9516931E-1,4.289932E-1,-4.424926E-1,1.3931555E-1,2.5077242E-1,9.672009E-1,2.5263501E-2,-5.6630403E-2,-3.8378749E-3,5.8067363E-2,8.855501E-2,1.6351289E-3,4.31333E-2,1.08867384E-1],"categories":[],"categories_nodes":[],"categories_segments":[],"categories_sizes":[],"default_left":[0,0,0,0,0,0,0,0,0,0,0,0,0,0,0],"id":34,"left_children":[1,3,5,7,9,11,13,-1,-1,-1,-1,-1,-1,-1,-1],"loss_changes":[1.5107045E1,1.045186E1,5.1383543E0,6.3781557E0,4.2692204E0,6.457489E0,4.160185E-1,0E0,0E0,0E0,0E0,0E0,0E0,0E0,0E0],"parents":[2147483647,0,0,1,1,2,2,3,3,4,4,5,5,6,6],"right_children":[2,4,6,8,10,12,14,-1,-1,-1,-1,-1,-1,-1,-1],"split_conditions":[4.008745E-1,2E0,1.471273E0,1E0,5.2211416E-1,1E0,-6.3832456E-1,2.5263501E-2,-5.6630403E-2,-3.8378749E-3,5.8067363E-2,8.855501E-2,1.6351289E-3,4.31333E-2,1.08867384E-1],"split_indices":[3,4,3,0,5,2,5,0,0,0,0,0,0,0,0],"split_type":[0,0,0,0,0,0,0,0,0,0,0,0,0,0,0],"sum_hessian":[1.7969598E2,1.2459807E2,5.509792E1,7.14465E1,5.315156E1,4.249287E1,1.2605047E1,1.0644345E1,6.0802162E1,3.854577E1,1.4605791E1,1.0711126E1,3.1781746E1,3.1703174E0,9.43473E0],"tree_param":{"num_deleted":"0","num_feature":"17","num_nodes":"15","size_leaf_vector":"1"}},{"base_weights":[2.6047293E-2,-9.541492E-2,1.0169791E-1,-2.5722098E-1,3.0983564E-1,-2.9217573E-3,-7.9870634E-2,6.9975085E-3,6.1645936E-2],"categories":[],"categories_nodes":[],"categories_segments":[],"categories_sizes":[],"default_left":[0,0,0,0,0,0,0,0,0],"id":35,"left_children":[1,-1,3,5,7,-1,-1,-1,-1],"loss_changes":[1.3152056E1,0E0,1.235708E1,7.491633E0,7.6407843E0,0E0,0E0,0E0,0E0],"parents":[2147483647,0,0,2,2,3,3,4,4],"right_children":[2,-1,4,6,8,-1,-1,-1,-1],"split_conditions":[-6.0619396E-1,-9.541492E-2,-4.019243E-1,5.7498723E-2,2E0,-2.9217573E-3,-7.9870634E-2,6.9975085E-3,6.1645936E-2],"split_indices":[1,0,3,9,4,0,0,0,0],"split_type":[0,0,0,0,0,0,0,0,0],"sum_hessian":[1.7505647E2,1.1710627E1,1.6334584E2,5.9869415E1,1.03476425E2,4.2871468E1,1.6997946E1,5.8748123E1,4.4728302E1],"tree_param":{"num_deleted":"0","num_feature":"17","num_nodes":"9","size_leaf_vector":"1"}},{"base_weights":[-1.8436514E-2,8.368107E-1,-1.0722178E-1,1.982374E-3,9.0112376E-1,-2.9888478E-1,2.553491E-1,2.4747517E-2,1.04826175E-1,2.6113614E-2,-4.6261672E-2,-8.862736E-2,3.0547181E-2],"categories":[],"categories_nodes":[],"categories_segments":[],"categories_sizes":[],"default_left":[0,0,0,0,0,0,0,0,0,0,0,0,0],"id":36,"left_children":[1,3,5,-1,7,9,11,-1,-1,-1,-1,-1,-1],"loss_changes":[1.3429531E1,8.562355E-1,1.1197861E1,0E0,1.2216396E0,9.763049E0,3.4685035E0,0E0,0E0,0E0,0E0,0E0,0E0],"parents":[2147483647,0,0,1,1,2,2,4,4,5,5,6,6],"right_children":[2,4,6,-1,8,10,12,-1,-1,-1,-1,-1,-1],"split_conditions":[1E0,-1.4311537E0,6.342275E-1,1.982374E-3,-1.1002538E-1,1E0,-1.4362189E0,2.4747517E-2,1.04826175E-1,2.6113614E-2,-4.6261672E-2,-8.862736E-2,3.0547181E-2],"split_indices":[6,3,1,0,1,2,5,0,0,0,0,0,0],"split_type":[0,0,0,0,0,0,0,0,0,0,0,0,0],"sum_hessian":[1.7467781E2,1.5635893E1,1.5904192E2,1.2365013E0,1.4399391E1,1.0415757E2,5.488435E1,3.1385522E0,1.1260839E1,2.34286E1,8.072897E1,1.6067208E0,5.327763E1],"tree_param":{"num_deleted":"0","num_feature":"17","num_nodes":"13","size_leaf_vector":"1"}},{"base_weights":[-1.902287E-2,-1.0807695E-1,6.521645E-1,4.636893E-1,-2.0773464E-1,8.564185E-1,3.615335E-1,-4.3884307E-2,5.8452398E-2,6.349868E-2,-2.8083099E-2,2.7529044E-2,9.406564E-2,9.743304E-2,-8.328476E-4],"categories":[],"categories_nodes":[],"categories_segments":[],"categories_sizes":[],"default_left":[0,0,0,0,0,0,0,0,0,0,0,0,0,0,0],"id":37,"left_children":[1,3,5,7,9,11,13,-1,-1,-1,-1,-1,-1,-1,-1],"loss_changes":[1.0366762E1,8.810916E0,8.9665127E-1,2.7658873E0,8.243538E0,2.8947067E-1,2.301229E0,0E0,0E0,0E0,0E0,0E0,0E0,0E0,0E0],"parents":[2147483647,0,0,1,1,2,2,3,3,4,4,5,5,6,6],"right_children":[2,4,6,8,10,12,14,-1,-1,-1,-1,-1,-1,-1,-1],"split_conditions":[1.1697649E0,1E0,1E0,-5.441729E-1,1E0,1.372608E0,1.6474245E-1,-4.3884307E-2,5.8452398E-2,6.349868E-2,-2.8083099E-2,2.7529044E-2,9.406564E-2,9.743304E-2,-8.328476E-4],"split_indices":[5,0,13,1,6,5,9,0,0,0,0,0,0,0,0],"split_type":[0,0,0,0,0,0,0,0,0,0,0,0,0,0,0],"sum_hessian":[1.7125928E2,1.519388E2,1.9320477E1,2.2009699E1,1.299291E2,1.0203062E1,9.117414E0,2.2880607E0,1.9721638E1,9.7568E0,1.201723E2,1.8320932E0,8.370969E0,2.816559E0,6.3008556E0],"tree_param":{"num_deleted":"0","num_feature":"17","num_nodes":"15","size_leaf_vector":"1"}},{"base_weights":[9.345672E-3,-6.0222503E-2,9.2543834E-1,7.708126E-1,-1.3875386E-1,3.8685793E-1,1.0565503E-1,-1.3289183E-3,8.4681414E-2,-3.4119625E-2,1.5205368E-2,-1.1389102E-2,6.8604E-2],"categories":[],"categories_nodes":[],"categories_segments":[],"categories_sizes":[],"default_left":[0,0,0,0,0,0,0,0,0,0,0,0,0],"id":38,"left_children":[1,3,5,7,9,11,-1,-1,-1,-1,-1,-1,-1],"loss_changes":[1.1026834E1,1.061001E1,4.53557E-1,8.4839344E-1,8.758329E0,6.726577E-1,0E0,0E0,0E0,0E0,0E0,0E0,0E0],"parents":[2147483647,0,0,1,1,2,2,3,3,4,4,5,5],"right_children":[2,4,6,8,10,12,-1,-1,-1,-1,-1,-1,-1],"split_conditions":[1.471273E0,1E0,-6.3832456E-1,-1.4311537E0,2E0,1.8417954E0,1.0565503E-1,-1.3289183E-3,8.4681414E-2,-3.4119625E-2,1.5205368E-2,-1.1389102E-2,6.8604E-2],"split_indices":[3,6,5,3,4,3,0,0,0,0,0,0,0],"split_type":[0,0,0,0,0,0,0,0,0,0,0,0,0],"sum_hessian":[1.7114731E2,1.59936E2,1.1211296E1,1.3047658E1,1.4688835E2,2.9683847E0,8.242911E0,1.2258459E0,1.1821812E1,8.649946E1,6.038889E1,1.3418388E0,1.6265459E0],"tree_param":{"num_deleted":"0","num_feature":"17","num_nodes":"13","size_leaf_vector":"1"}},{"base_weights":[4.599988E-3,-9.332101E-2,6.647599E-2,-1.1484911E-1,1.1474372E-1,7.590623E-2,-2.7531816E-3],"categories":[],"categories_nodes":[],"categories_segments":[],"categories_sizes":[],"default_left":[0,0,0,0,0,0,0],"id":39,"left_children":[1,-1,3,-1,5,-1,-1],"loss_changes":[9.890629E0,0E0,9.504615E0,0E0,1.419586E1,0E0,0E0],"parents":[2147483647,0,0,2,2,4,4],"right_children":[2,-1,4,-1,6,-1,-1],"split_conditions":[-6.0619396E-1,-9.332101E-2,-1.4517382E0,-1.1484911E-1,-3.1785432E-1,7.590623E-2,-2.7531816E-3],"split_indices":[1,0,3,0,9,0,0],"split_type":[0,0,0,0,0,0,0],"sum_hessian":[1.6837692E2,9.550155E0,1.5882677E2,5.1977534E0,1.5362901E2,2.7003586E1,1.2662542E2],"tree_param":{"num_deleted":"0","num_feature":"17","num_nodes":"7","size_leaf_vector":"1"}},{"base_weights":[-1.2564023E-5,-1.0236462E-1,7.1270347E-1,3.5704815E-1,-2.3622145E-1,3.379799E-1,8.6169887E-1,-4.819526E-2,5.484108E-2,-4.7918122E-2,4.600728E-3,-2.7535109E-2,6.62451E-2,9.743566E-2,3.5395313E-2],"categories":[],"categories_nodes":[],"categories_segments":[],"categories_sizes":[],"default_left":[0,0,0,0,0,0,0,0,0,0,0,0,0,0,0],"id":40,"left_children":[1,3,5,7,9,11,13,-1,-1,-1,-1,-1,-1,-1,-1],"loss_changes":[1.217491E1,9.059013E0,8.789072E-1,5.614914E0,7.8125954E0,1.6964347E0,4.7598743E-1,0E0,0E0,0E0,0E0,0E0,0E0,0E0,0E0],"parents":[2147483647,0,0,1,1,2,2,3,3,4,4,5,5,6,6],"right_children":[2,4,6,8,10,12,14,-1,-1,-1,-1,-1,-1,-1,-1],"split_conditions":[1.069226E0,1E0,1.3805892E-1,-9.988773E-1,9.767386E-3,1.3932393E0,6.6847414E-1,-4.819526E-2,5.484108E-2,-4.7918122E-2,4.600728E-3,-2.7535109E-2,6.62451E-2,9.743566E-2,3.5395313E-2],"split_indices":[5,2,1,3,3,5,3,0,0,0,0,0,0,0,0],"split_type":[0,0,0,0,0,0,0,0,0,0,0,0,0,0,0],"sum_hessian":[1.6489847E2,1.449402E2,1.9958267E1,3.232602E1,1.1261418E2,6.6078687E0,1.3350399E1,5.7216725E0,2.6604345E1,6.0142227E1,5.2471954E1,2.3386412E0,4.2692275E0,1.0174021E1,3.176378E0],"tree_param":{"num_deleted":"0","num_feature":"17","num_nodes":"15","size_leaf_vector":"1"}},{"base_weights":[1.9115653E-2,-1.6993247E-1,3.765131E-1,3.5569802E-1,-3.2314447E-1,-8.13823E-2,4.211087E-1,-1.47471605E-2,5.801008E-2,-5.785224E-2,-1.0659047E-2,9.9605404E-2,3.0789465E-2],"categories":[],"categories_nodes":[],"categories_segments":[],"categories_sizes":[],"default_left":[0,0,0,0,0,0,0,0,0,0,0,0,0],"id":41,"left_children":[1,3,5,7,9,-1,11,-1,-1,-1,-1,-1,-1],"loss_changes":[1.097704E1,8.677903E0,3.3254795E0,2.848971E0,4.52046E0,0E0,3.2616453E0,0E0,0E0,0E0,0E0,0E0,0E0],"parents":[2147483647,0,0,1,1,2,2,3,3,4,4,6,6],"right_children":[2,4,6,8,10,-1,12,-1,-1,-1,-1,-1,-1],"split_conditions":[6.342275E-1,1E0,-1.4362189E0,-6.283548E-1,-2.3724765E-1,-8.13823E-2,-1.0076369E0,-1.47471605E-2,5.801008E-2,-5.785224E-2,-1.0659047E-2,9.9605404E-2,3.0789465E-2],"split_indices":[1,2,5,3,3,0,5,0,0,0,0,0,0],"split_type":[0,0,0,0,0,0,0,0,0,0,0,0,0],"sum_hessian":[1.6051865E2,1.05328735E2,5.5189915E1,2.3473988E1,8.1854744E1,1.370116E0,5.3819798E1,7.345741E0,1.6128246E1,3.6793453E1,4.5061295E1,7.571383E0,4.6248413E1],"tree_param":{"num_deleted":"0","num_feature":"17","num_nodes":"13","size_leaf_vector":"1"}},{"base_weights":[-2.3781262E-2,-8.9432694E-2,8.872924E-1,7.506465E-1,-1.6500686E-1,1.0139374E-2,9.657859E-2,4.5730405E-2,9.7429655E-2,2.6314234E-2,-2.7637864E-2],"categories":[],"categories_nodes":[],"categories_segments":[],"categories_sizes":[],"default_left":[0,0,0,0,0,0,0,0,0,0,0],"id":42,"left_children":[1,3,5,7,9,-1,-1,-1,-1,-1,-1],"loss_changes":[9.755302E0,9.761648E0,5.784855E-1,3.882699E-1,6.752966E0,0E0,0E0,0E0,0E0,0E0,0E0],"parents":[2147483647,0,0,1,1,2,2,3,3,4,4],"right_children":[2,4,6,8,10,-1,-1,-1,-1,-1,-1],"split_conditions":[1.471273E0,1E0,-1.029917E0,4.0200185E-2,1E0,1.0139374E-2,9.657859E-2,4.5730405E-2,9.7429655E-2,2.6314234E-2,-2.7637864E-2],"split_indices":[3,6,5,5,2,0,0,0,0,0,0],"split_type":[0,0,0,0,0,0,0,0,0,0,0],"sum_hessian":[1.6076921E2,1.5080418E2,9.965024E0,1.1709484E1,1.3909471E2,1.1130091E0,8.852015E0,6.3826485E0,5.3268356E0,2.8431618E1,1.10663086E2],"tree_param":{"num_deleted":"0","num_feature":"17","num_nodes":"11","size_leaf_vector":"1"}},{"base_weights":[4.049736E-2,-9.184196E-2,1.0084501E-1,-1.1020658E-1,1.4904873E-1,6.544319E-2,2.492719E-3],"categories":[],"categories_nodes":[],"categories_segments":[],"categories_sizes":[],"default_left":[0,0,0,0,0,0,0],"id":43,"left_children":[1,-1,3,-1,5,-1,-1],"loss_changes":[9.195677E0,0E0,8.797827E0,0E0,9.019028E0,0E0,0E0],"parents":[2147483647,0,0,2,2,4,4],"right_children":[2,-1,4,-1,6,-1,-1],"split_conditions":[-6.0619396E-1,-9.184196E-2,-1.4517382E0,-1.1020658E-1,-2.3205934E-1,6.544319E-2,2.492719E-3],"split_indices":[1,0,3,0,9,0,0],"split_type":[0,0,0,0,0,0,0],"sum_hessian":[1.5630624E2,8.412578E0,1.4789366E2,4.8558006E0,1.4303787E2,2.736083E1,1.1567704E2],"tree_param":{"num_deleted":"0","num_feature":"17","num_nodes":"7","size_leaf_vector":"1"}},{"base_weights":[-6.784219E-3,-1.1135842E-1,4.028251E-2,1.4272675E-1,-3.896998E-2,-2.546533E-2,2.4770705E-2],"categories":[],"categories_nodes":[],"categories_segments":[],"categories_sizes":[],"default_left":[0,0,0,0,0,0,0],"id":44,"left_children":[1,-1,3,-1,5,-1,-1],"loss_changes":[8.276057E0,0E0,1.6821825E1,0E0,9.044543E0,0E0,0E0],"parents":[2147483647,0,0,2,2,4,4],"right_children":[2,-1,4,-1,6,-1,-1],"split_conditions":[-1.3864379E0,-1.1135842E-1,-1.3647952E0,1.4272675E-1,2E0,-2.546533E-2,2.4770705E-2],"split_indices":[5,0,5,0,4,0,0],"split_type":[0,0,0,0,0,0,0],"sum_hessian":[1.5700832E2,5.4801397E0,1.5152818E2,7.270972E0,1.4425722E2,8.238558E1,6.1871628E1],"tree_param":{"num_deleted":"0","num_feature":"17","num_nodes":"7","size_leaf_vector":"1"}},{"base_weights":[-1.4711095E-2,-1.06954716E-1,2.9144162E-2,6.207174E-1,-8.597173E-2,7.200656E-3,8.521651E-2,-3.0186767E-2,2.1607338E-2],"categories":[],"categories_nodes":[],"categories_segments":[],"categories_sizes":[],"default_left":[0,0,0,0,0,0,0,0,0],"id":45,"left_children":[1,-1,3,5,7,-1,-1,-1,-1],"loss_changes":[7.2275386E0,0E0,1.02905655E1,3.0639477E0,8.3285475E0,0E0,0E0,0E0,0E0],"parents":[2147483647,0,0,2,2,3,3,4,4],"right_children":[2,-1,4,6,8,-1,-1,-1,-1],"split_conditions":[-1.4517382E0,-1.06954716E-1,-3.1785432E-1,-6.3832456E-1,2E0,7.200656E-3,8.521651E-2,-3.0186767E-2,2.1607338E-2],"split_indices":[3,0,9,5,4,0,0,0,0],"split_type":[0,0,0,0,0,0,0,0,0],"sum_hessian":[1.5456314E2,5.2359695E0,1.4932718E2,2.360915E1,1.25718025E2,7.393032E0,1.6216118E1,7.33147E1,5.2403328E1],"tree_param":{"num_deleted":"0","num_feature":"17","num_nodes":"9","size_leaf_vector":"1"}},{"base_weights":[-6.328525E-3,-6.8364546E-2,8.3878565E-1,6.4115953E-1,-1.3457897E-1,1.40156E-2,9.159796E-2,3.4572344E-2,8.72528E-2,-2.5539154E-2,2.3022491E-2],"categories":[],"categories_nodes":[],"categories_segments":[],"categories_sizes":[],"default_left":[0,0,0,0,0,0,0,0,0,0,0],"id":46,"left_children":[1,3,5,7,9,-1,-1,-1,-1,-1,-1],"loss_changes":[8.038964E0,6.7930017E0,4.371543E-1,5.4310894E-1,5.849802E0,0E0,0E0,0E0,0E0,0E0,0E0],"parents":[2147483647,0,0,1,1,2,2,3,3,4,4],"right_children":[2,4,6,8,10,-1,-1,-1,-1,-1,-1],"split_conditions":[1.4301038E0,1E0,-1.029917E0,4.0200185E-2,5.1615036E-1,1.40156E-2,9.159796E-2,3.4572344E-2,8.72528E-2,-2.5539154E-2,2.3022491E-2],"split_indices":[3,6,5,5,5,0,0,0,0,0,0],"split_type":[0,0,0,0,0,0,0,0,0,0,0],"sum_hessian":[1.5124106E2,1.417546E2,9.486459E0,1.1358537E1,1.3039606E2,1.2240493E0,8.262409E0,6.0840383E0,5.274498E0,9.818119E1,3.2214874E1],"tree_param":{"num_deleted":"0","num_feature":"17","num_nodes":"11","size_leaf_vector":"1"}},{"base_weights":[-1.1163483E-2,-9.045871E-2,3.90874E-2,-1.0625583E-1,8.105749E-2,1.4083946E-1,4.6370062E-4],"categories":[],"categories_nodes":[],"categories_segments":[],"categories_sizes":[],"default_left":[0,0,0,0,0,0,0],"id":47,"left_children":[1,-1,3,-1,5,-1,-1],"loss_changes":[7.1689296E0,0E0,7.0858617E0,0E0,1.4880588E1,0E0,0E0],"parents":[2147483647,0,0,2,2,4,4],"right_children":[2,-1,4,-1,6,-1,-1],"split_conditions":[-6.0619396E-1,-9.045871E-2,-1.3864379E0,-1.0625583E-1,-1.3647952E0,1.4083946E-1,4.6370062E-4],"split_indices":[1,0,5,0,5,0,0],"split_type":[0,0,0,0,0,0,0],"sum_hessian":[1.578934E2,7.5025306E0,1.5039087E2,4.6268425E0,1.4576402E2,6.986522E0,1.387775E2],"tree_param":{"num_deleted":"0","num_feature":"17","num_nodes":"7","size_leaf_vector":"1"}},{"base_weights":[2.9339404E-3,-1.4159936E-1,3.3019128E-1,-3.2665774E-1,1.8625762E-1,-7.7363305E-2,3.8445634E-1,-5.617426E-2,-1.505929E-3,6.9834925E-3,8.228626E-2,-6.177599E-2,4.322603E-2],"categories":[],"categories_nodes":[],"categories_segments":[],"categories_sizes":[],"default_left":[0,0,0,0,0,0,0,0,0,0,0,0,0],"id":48,"left_children":[1,3,5,7,9,-1,11,-1,-1,-1,-1,-1,-1],"loss_changes":[7.3166933E0,6.5718517E0,3.135816E0,5.042885E0,2.859366E0,0E0,2.462923E0,0E0,0E0,0E0,0E0,0E0,0E0],"parents":[2147483647,0,0,1,1,2,2,3,3,4,4,6,6],"right_children":[2,4,6,8,10,-1,12,-1,-1,-1,-1,-1,-1],"split_conditions":[4.008745E-1,5.7220644E-1,-1.3864379E0,2E0,1.0345047E0,-7.7363305E-2,-6.0619396E-1,-5.617426E-2,-1.505929E-3,6.9834925E-3,8.228626E-2,-6.177599E-2,4.322603E-2],"split_indices":[3,1,5,4,5,0,1,0,0,0,0,0,0],"split_type":[0,0,0,0,0,0,0,0,0,0,0,0,0],"sum_hessian":[1.5269984E2,1.0631369E2,4.6386154E1,6.795836E1,3.8355335E1,1.5523669E0,4.483379E1,3.827732E1,2.9681036E1,3.33635E1,4.991838E0,1.4983283E0,4.333546E1],"tree_param":{"num_deleted":"0","num_feature":"17","num_nodes":"13","size_leaf_vector":"1"}},{"base_weights":[8.6834887E-4,-1.746876E-1,2.4363923E-1,-3.1563607E-1,3.0216682E-1,-1.4231454E-1,3.8949808E-1,-4.7710836E-2,3.0207817E-2,7.247481E-2,-1.9729394E-4,-5.25673E-2,2.3226427E-2,4.6353668E-2,-4.648044E-2],"categories":[],"categories_nodes":[],"categories_segments":[],"categories_sizes":[],"default_left":[0,0,0,0,0,0,0,0,0,0,0,0,0,0,0],"id":49,"left_children":[1,3,5,7,9,11,13,-1,-1,-1,-1,-1,-1,-1,-1],"loss_changes":[6.394641E0,5.94793E0,3.5999846E0,6.896704E0,2.6203423E0,2.7070613E0,3.122661E0,0E0,0E0,0E0,0E0,0E0,0E0,0E0,0E0],"parents":[2147483647,0,0,1,1,2,2,3,3,4,4,5,5,6,6],"right_children":[2,4,6,8,10,12,14,-1,-1,-1,-1,-1,-1,-1,-1],"split_conditions":[2E0,9.443329E-1,-6.6062105E-1,6.3482535E-1,-2.8903335E-1,2.290887E-1,1.4405015E0,-4.7710836E-2,3.0207817E-2,7.247481E-2,-1.9729394E-4,-5.25673E-2,2.3226427E-2,4.6353668E-2,-4.648044E-2],"split_indices":[4,1,5,5,5,9,1,0,0,0,0,0,0,0,0],"split_type":[0,0,0,0,0,0,0,0,0,0,0,0,0,0,0],"sum_hessian":[1.4804034E2,8.607617E1,6.196418E1,6.6699295E1,1.9376871E1,1.7001417E1,4.4962765E1,5.305753E1,1.3641768E1,7.530632E0,1.1846239E1,8.20289E0,8.798526E0,4.179775E1,3.1650164E0],"tree_param":{"num_deleted":"0","num_feature":"17","num_nodes":"15","size_leaf_vector":"1"}},{"base_weights":[1.19856E-2,-1.03371404E-1,5.3504687E-2,7.010836E-1,-6.8468496E-2,1.6138438E-2,9.287846E-2,-3.8435467E-2,9.933779E-3],"categories":[],"categories_nodes":[],"categories_segments":[],"categories_sizes":[],"default_left":[0,0,0,0,0,0,0,0,0],"id":50,"left_children":[1,-1,3,5,7,-1,-1,-1,-1],"loss_changes":[6.4914565E0,0E0,1.1385175E1,2.656744E0,6.488848E0,0E0,0E0,0E0,0E0],"parents":[2147483647,0,0,2,2,3,3,4,4],"right_children":[2,-1,4,6,8,-1,-1,-1,-1],"split_conditions":[-1.4517382E0,-1.03371404E-1,-3.1785432E-1,-6.3832456E-1,-4.019243E-1,1.6138438E-2,9.287846E-2,-3.8435467E-2,9.933779E-3],"split_indices":[3,0,9,5,3,0,0,0,0],"split_type":[0,0,0,0,0,0,0,0,0],"sum_hessian":[1.4724199E2,4.710329E0,1.4253166E2,2.1838587E1,1.2069308E2,6.986906E0,1.4851681E1,4.142407E1,7.9269005E1],"tree_param":{"num_deleted":"0","num_feature":"17","num_nodes":"9","size_leaf_vector":"1"}},{"base_weights":[3.015776E-3,-8.8740304E-2,5.049531E-2,4.4468608E-1,-6.167027E-2,-7.4287035E-2,5.1364213E-2,-1.00618206E-1,-1.7408048E-3],"categories":[],"categories_nodes":[],"categories_segments":[],"categories_sizes":[],"default_left":[0,0,0,0,0,0,0,0,0],"id":51,"left_children":[1,-1,3,5,7,-1,-1,-1,-1],"loss_changes":[6.326175E0,0E0,6.306002E0,2.9674196E0,4.6407323E0,0E0,0E0,0E0,0E0],"parents":[2147483647,0,0,2,2,3,3,4,4],"right_children":[2,-1,4,6,8,-1,-1,-1,-1],"split_conditions":[-6.0619396E-1,-8.8740304E-2,1E0,-1.4929074E0,-1.3864379E0,-7.4287035E-2,5.1364213E-2,-1.00618206E-1,-1.7408048E-3],"split_indices":[1,0,2,3,5,0,0,0,0],"split_type":[0,0,0,0,0,0,0,0,0],"sum_hessian":[1.4757759E2,6.575331E0,1.4100226E2,3.0577438E1,1.1042483E2,1.1417192E0,2.9435719E1,3.9702988E0,1.0645453E2],"tree_param":{"num_deleted":"0","num_feature":"17","num_nodes":"9","size_leaf_vector":"1"}},{"base_weights":[9.341605E-4,-1.7093332E-1,2.2377312E-1,-2.491553E-1,6.4219236E-1,1.4015737E-1,8.522533E-2,-4.502393E-2,7.365656E-3,8.9212805E-2,2.6193017E-2,-8.422092E-2,1.8562656E-2],"categories":[],"categories_nodes":[],"categories_segments":[],"categories_sizes":[],"default_left":[0,0,0,0,0,0,0,0,0,0,0,0,0],"id":52,"left_children":[1,3,5,7,9,11,-1,-1,-1,-1,-1,-1,-1],"loss_changes":[5.7569766E0,5.557955E0,3.320062E0,5.105437E0,5.007317E-1,2.790039E0,0E0,0E0,0E0,0E0,0E0,0E0,0E0],"parents":[2147483647,0,0,1,1,2,2,3,3,4,4,5,5],"right_children":[2,4,6,8,10,12,-1,-1,-1,-1,-1,-1,-1],"split_conditions":[5.0936557E-2,1.3932393E0,1.5330267E0,5.7220644E-1,-6.847512E-3,-1.3864379E0,8.522533E-2,-4.502393E-2,7.365656E-3,8.9212805E-2,2.6193017E-2,-8.422092E-2,1.8562656E-2],"split_indices":[3,5,3,1,9,5,0,0,0,0,0,0,0],"split_type":[0,0,0,0,0,0,0,0,0,0,0,0,0],"sum_hessian":[1.483188E2,8.3867676E1,6.4451126E1,7.714042E1,6.7272573E0,5.7962543E1,6.48858E0,4.7288815E1,2.9851604E1,3.247005E0,3.4802525E0,1.7889712E0,5.6173573E1],"tree_param":{"num_deleted":"0","num_feature":"17","num_nodes":"13","size_leaf_vector":"1"}},{"base_weights":[1.0970391E-2,-8.701611E-2,5.3516146E-2,-9.866807E-2,8.900464E-2,5.945457E-2,-3.2324102E-3],"categories":[],"categories_nodes":[],"categories_segments":[],"categories_sizes":[],"default_left":[0,0,0,0,0,0,0],"id":53,"left_children":[1,-1,3,-1,5,-1,-1],"loss_changes":[5.5396423E0,0E0,5.282505E0,0E0,8.422022E0,0E0,0E0],"parents":[2147483647,0,0,2,2,4,4],"right_children":[2,-1,4,-1,6,-1,-1],"split_conditions":[-6.0619396E-1,-8.701611E-2,-1.4517382E0,-9.866807E-2,-2.2133496E-1,5.945457E-2,-3.2324102E-3],"split_indices":[1,0,3,0,9,0,0],"split_type":[0,0,0,0,0,0,0],"sum_hessian":[1.4552728E2,5.807172E0,1.3972011E2,3.7253132E0,1.359948E2,2.5566492E1,1.1042831E2],"tree_param":{"num_deleted":"0","num_feature":"17","num_nodes":"7","size_leaf_vector":"1"}},{"base_weights":[-1.4832083E-3,3.994651E-1,-1.1356163E-1,-4.284661E-2,5.562466E-1,2.5761348E-1,-2.1787058E-1,3.659823E-2,-3.0550852E-2,3.0049661E-2,8.0322385E-2,-7.829734E-2,3.9480608E-2,-5.9068482E-2,-5.7501546E-3],"categories":[],"categories_nodes":[],"categories_segments":[],"categories_sizes":[],"default_left":[0,0,0,0,0,0,0,0,0,0,0,0,0,0,0],"id":54,"left_children":[1,3,5,7,9,11,13,-1,-1,-1,-1,-1,-1,-1,-1],"loss_changes":[6.5028243E0,2.216175E0,4.43438E0,1.099946E0,1.2374701E0,3.916099E0,5.2762694E0,0E0,0E0,0E0,0E0,0E0,0E0,0E0,0E0],"parents":[2147483647,0,0,1,1,2,2,3,3,4,4,5,5,6,6],"right_children":[2,4,6,8,10,12,14,-1,-1,-1,-1,-1,-1,-1,-1],"split_conditions":[1E0,-7.9303145E-1,-1.8916185E-1,-2.3205934E-1,3.861432E-1,-1.4517382E0,-4.019243E-1,3.659823E-2,-3.0550852E-2,3.0049661E-2,8.0322385E-2,-7.829734E-2,3.9480608E-2,-5.9068482E-2,-5.7501546E-3],"split_indices":[2,3,9,9,1,3,3,0,0,0,0,0,0,0,0],"split_type":[0,0,0,0,0,0,0,0,0,0,0,0,0,0,0],"sum_hessian":[1.4269821E2,3.0614397E1,1.1208382E2,8.201905E0,2.241249E1,2.4265882E1,8.781793E1,3.054409E0,5.1474957E0,1.2099701E1,1.031279E1,2.2782855E0,2.1987597E1,2.5606506E1,6.2211426E1],"tree_param":{"num_deleted":"0","num_feature":"17","num_nodes":"15","size_leaf_vector":"1"}},{"base_weights":[-5.366082E-3,-5.537171E-2,7.7386516E-1,-9.9322565E-2,-1.8986145E-2,1.0447792E-1,9.676795E-2,1.4112091E-1,-9.575217E-3,-4.0454295E-2,5.6563772E-2],"categories":[],"categories_nodes":[],"categories_segments":[],"categories_sizes":[],"default_left":[0,0,0,0,0,0,0,0,0,0,0],"id":55,"left_children":[1,3,5,-1,7,9,-1,-1,-1,-1,-1],"loss_changes":[5.5669208E0,4.558953E0,1.0166788E0,0E0,1.4425458E1,9.4607896E-1,0E0,0E0,0E0,0E0,0E0],"parents":[2147483647,0,0,1,1,2,2,4,4,5,5],"right_children":[2,4,6,-1,8,10,-1,-1,-1,-1,-1],"split_conditions":[1.471273E0,-1.3864379E0,-6.3832456E-1,-9.9322565E-2,-1.3647952E0,5.7220644E-1,9.676795E-2,1.4112091E-1,-9.575217E-3,-4.0454295E-2,5.6563772E-2],"split_indices":[3,5,5,0,5,1,0,0,0,0,0],"split_type":[0,0,0,0,0,0,0,0,0,0,0],"sum_hessian":[1.4076662E2,1.3315086E2,7.615753E0,3.9907324E0,1.2916014E2,2.0555267E0,5.5602264E0,5.694019E0,1.2346612E2,1.0354185E0,1.0201081E0],"tree_param":{"num_deleted":"0","num_feature":"17","num_nodes":"11","size_leaf_vector":"1"}},{"base_weights":[-1.7549787E-3,7.054383E-1,-6.786299E-2,2.4900597E-1,1.0117872E-1,-1.677767E-1,2.4680562E-1,-5.9503496E-2,5.8348306E-2,-4.5941053E-3,-6.0257E-2,3.8355466E-3,9.7520515E-2],"categories":[],"categories_nodes":[],"categories_segments":[],"categories_sizes":[],"default_left":[0,0,0,0,0,0,0,0,0,0,0,0,0],"id":56,"left_children":[1,3,5,7,-1,9,11,-1,-1,-1,-1,-1,-1],"loss_changes":[6.5794525E0,1.4303589E0,4.087015E0,2.085798E0,0E0,5.177599E0,4.7326374E0,0E0,0E0,0E0,0E0,0E0,0E0],"parents":[2147483647,0,0,1,1,2,2,3,3,5,5,6,6],"right_children":[2,4,6,8,-1,10,12,-1,-1,-1,-1,-1,-1],"split_conditions":[1E0,-5.691736E-2,5.2211416E-1,-1.1002538E-1,1.0117872E-1,1.3584194E-1,7.508125E-1,-5.9503496E-2,5.8348306E-2,-4.5941053E-3,-6.0257E-2,3.8355466E-3,9.7520515E-2],"split_indices":[6,5,5,1,0,5,3,0,0,0,0,0,0],"split_type":[0,0,0,0,0,0,0,0,0,0,0,0,0],"sum_hessian":[1.3870952E2,1.1031249E1,1.2767826E2,5.1584463E0,5.872803E0,9.726231E1,3.0415956E1,1.2429373E0,3.915509E0,7.683706E1,2.0425245E1,2.446681E1,5.9491463E0],"tree_param":{"num_deleted":"0","num_feature":"17","num_nodes":"13","size_leaf_vector":"1"}},{"base_weights":[-1.0328962E-2,-1.6681947E-1,2.134566E-1,5.8009315E-1,-2.6495612E-1,6.745992E-2,5.3829604E-1,-8.515255E-2,1.14399575E-1,2.1323046E-2,-3.9356347E-2,3.9632164E-2,-2.5876675E-2,7.6028206E-3,7.536196E-2],"categories":[],"categories_nodes":[],"categories_segments":[],"categories_sizes":[],"default_left":[0,0,0,0,0,0,0,0,0,0,0,0,0,0,0],"id":57,"left_children":[1,3,5,7,9,11,13,-1,-1,-1,-1,-1,-1,-1,-1],"loss_changes":[4.875781E0,6.1566076E0,2.681867E0,8.905139E0,4.57769E0,4.4674797E0,1.6974301E0,0E0,0E0,0E0,0E0,0E0,0E0,0E0,0E0],"parents":[2147483647,0,0,1,1,2,2,3,3,4,4,5,5,6,6],"right_children":[2,4,6,8,10,12,14,-1,-1,-1,-1,-1,-1,-1,-1],"split_conditions":[2E0,-1.2225163E0,5.2937114E-1,-1.3864379E0,-1.9988622E-1,3.604998E-2,7.603784E-2,-8.515255E-2,1.14399575E-1,2.1323046E-2,-3.9356347E-2,3.9632164E-2,-2.5876675E-2,7.6028206E-3,7.536196E-2],"split_indices":[4,5,9,5,9,9,1,0,0,0,0,0,0,0,0],"split_type":[0,0,0,0,0,0,0,0,0,0,0,0,0,0,0],"sum_hessian":[1.372104E2,8.089563E1,5.631477E1,8.8241825E0,7.207145E1,3.9685905E1,1.6628866E1,2.3494394E0,6.474743E0,1.5135772E1,5.6935677E1,1.9656136E1,2.002977E1,5.7142673E0,1.0914598E1],"tree_param":{"num_deleted":"0","num_feature":"17","num_nodes":"15","size_leaf_vector":"1"}},{"base_weights":[-1.4699325E-2,-5.7963498E-2,8.206104E-2,5.977775E-1,-1.13407016E-1,-9.149632E-3,6.804246E-2,2.3738196E-2,-2.1255156E-2],"categories":[],"categories_nodes":[],"categories_segments":[],"categories_sizes":[],"default_left":[0,0,0,0,0,0,0,0,0],"id":58,"left_children":[1,3,-1,5,7,-1,-1,-1,-1],"loss_changes":[5.069094E0,4.9047484E0,0E0,6.621902E-1,4.3460126E0,0E0,0E0,0E0,0E0],"parents":[2147483647,0,0,1,1,3,3,4,4],"right_children":[2,4,-1,6,8,-1,-1,-1,-1],"split_conditions":[1.5330267E0,1E0,8.206104E-2,-1.4311537E0,1E0,-9.149632E-3,6.804246E-2,2.3738196E-2,-2.1255156E-2],"split_indices":[3,6,0,3,2,0,0,0,0],"split_type":[0,0,0,0,0,0,0,0,0],"sum_hessian":[1.3795049E2,1.3204208E2,5.908402E0,9.531343E0,1.2251074E2,1.0090264E0,8.522317E0,2.6688465E1,9.582228E1],"tree_param":{"num_deleted":"0","num_feature":"17","num_nodes":"9","size_leaf_vector":"1"}},{"base_weights":[-2.2485126E-2,-8.548411E-2,1.5870247E-2,8.165252E-1,-3.0875986E-2,1.8561594E-2,1.7655127E-1,-9.438574E-2,8.002944E-5],"categories":[],"categories_nodes":[],"categories_segments":[],"categories_sizes":[],"default_left":[0,0,0,0,0,0,0,0,0],"id":59,"left_children":[1,-1,3,5,7,-1,-1,-1,-1],"loss_changes":[4.5072937E0,0E0,5.098103E0,4.17071E0,3.732153E0,0E0,0E0,0E0,0E0],"parents":[2147483647,0,0,2,2,3,3,4,4],"right_children":[2,-1,4,6,8,-1,-1,-1,-1],"split_conditions":[-6.0619396E-1,-8.548411E-2,-5.441729E-1,1E0,-1.3864379E0,1.8561594E-2,1.7655127E-1,-9.438574E-2,8.002944E-5],"split_indices":[1,0,1,11,5,0,0,0,0],"split_type":[0,0,0,0,0,0,0,0,0],"sum_hessian":[1.3975746E2,5.218681E0,1.3453879E2,6.5133286E0,1.2802545E2,4.630474E0,1.8828546E0,3.327331E0,1.2469813E2],"tree_param":{"num_deleted":"0","num_feature":"17","num_nodes":"9","size_leaf_vector":"1"}},{"base_weights":[2.9013006E-2,-2.8408717E-2,6.966445E-1,-1.9493166E-1,1.7003569E-1,8.398324E-2,3.1802607E-1,-1.0780036E-2,-1.05601005E-1,-1.3205722E-3,4.6814647E-2,-4.5909334E-2,7.221461E-2],"categories":[],"categories_nodes":[],"categories_segments":[],"categories_sizes":[],"default_left":[0,0,0,0,0,0,0,0,0,0,0,0,0],"id":60,"left_children":[1,3,5,7,9,-1,11,-1,-1,-1,-1,-1,-1],"loss_changes":[5.3349414E0,4.2836328E0,3.3031034E-1,5.168315E0,3.241238E0,0E0,1.786609E0,0E0,0E0,0E0,0E0,0E0,0E0],"parents":[2147483647,0,0,1,1,2,2,3,3,4,4,6,6],"right_children":[2,4,6,8,10,-1,12,-1,-1,-1,-1,-1,-1],"split_conditions":[1.3932393E0,9.767386E-3,4.650249E-1,-1.13740124E-1,2E0,8.398324E-2,3.1853616E-1,-1.0780036E-2,-1.05601005E-1,-1.3205722E-3,4.6814647E-2,-4.5909334E-2,7.221461E-2],"split_indices":[5,3,9,3,4,0,3,0,0,0,0,0,0],"split_type":[0,0,0,0,0,0,0,0,0,0,0,0,0],"sum_hessian":[1.3764447E2,1.2762513E2,1.0019348E1,6.940349E1,5.822164E1,6.3860765E0,3.6332717E0,6.4047775E1,5.3557105E0,3.664968E1,2.157196E1,1.1964589E0,2.4368129E0],"tree_param":{"num_deleted":"0","num_feature":"17","num_nodes":"13","size_leaf_vector":"1"}},{"base_weights":[-2.6658367E-2,-1.7910266E-1,2.5916585E-1,6.0698885E-1,-2.3541719E-1,-7.0026815E-2,2.9683506E-1,-7.7361494E-2,1.4074029E-1,-8.0576E-2,-4.752341E-3,2.2433614E-2,7.689189E-2],"categories":[],"categories_nodes":[],"categories_segments":[],"categories_sizes":[],"default_left":[0,0,0,0,0,0,0,0,0,0,0,0,0],"id":61,"left_children":[1,3,5,7,9,-1,11,-1,-1,-1,-1,-1,-1],"loss_changes":[5.963785E0,4.0898376E0,1.9298582E0,7.984032E0,8.954865E0,0E0,1.42066E0,0E0,0E0,0E0,0E0,0E0,0E0],"parents":[2147483647,0,0,1,1,2,2,3,3,4,4,6,6],"right_children":[2,4,6,8,10,-1,12,-1,-1,-1,-1,-1,-1],"split_conditions":[6.342275E-1,-1.3647952E0,-1.4517382E0,-1.3864379E0,-5.827092E-1,-7.0026815E-2,1.1180636E0,-7.7361494E-2,1.4074029E-1,-8.0576E-2,-4.752341E-3,2.2433614E-2,7.689189E-2],"split_indices":[1,5,3,5,5,0,5,0,0,0,0,0,0],"split_type":[0,0,0,0,0,0,0,0,0,0,0,0,0],"sum_hessian":[1.3480583E2,8.815941E1,4.664642E1,5.2397313E0,8.291968E1,1.0977137E0,4.5548706E1,1.9352221E0,3.3045094E0,1.9732922E1,6.3186752E1,4.0763737E1,4.7849693E0],"tree_param":{"num_deleted":"0","num_feature":"17","num_nodes":"13","size_leaf_vector":"1"}},{"base_weights":[-1.0335179E-2,3.5746676E-1,-1.1307013E-1,-1.3472039E-1,5.495456E-1,-2.1845739E-1,1.638122E-1,-5.9364956E-2,2.695834E-2,9.3538225E-2,4.3060955E-2,-5.4416783E-2,-5.4644877E-3,5.6095716E-2,-1.1116554E-2],"categories":[],"categories_nodes":[],"categories_segments":[],"categories_sizes":[],"default_left":[0,0,0,0,0,0,0,0,0,0,0,0,0,0,0],"id":62,"left_children":[1,3,5,7,9,11,13,-1,-1,-1,-1,-1,-1,-1,-1],"loss_changes":[5.166228E0,2.8967931E0,3.1520507E0,1.864203E0,5.9181833E-1,4.120324E0,3.340026E0,0E0,0E0,0E0,0E0,0E0,0E0,0E0,0E0],"parents":[2147483647,0,0,1,1,2,2,3,3,4,4,5,5,6,6],"right_children":[2,4,6,8,10,12,14,-1,-1,-1,-1,-1,-1,-1,-1],"split_conditions":[1E0,-7.9303145E-1,8.2029074E-1,-2.2854152E-1,4.6774354E-2,-5.376681E-1,-2.7836633E-1,-5.9364956E-2,2.695834E-2,9.3538225E-2,4.3060955E-2,-5.4416783E-2,-5.4644877E-3,5.6095716E-2,-1.1116554E-2],"split_indices":[2,3,1,5,9,5,5,0,0,0,0,0,0,0,0],"split_type":[0,0,0,0,0,0,0,0,0,0,0,0,0,0,0],"sum_hessian":[1.3465324E2,2.885823E1,1.0579501E2,8.184556E0,2.0673676E1,7.67814E1,2.901361E1,3.6139736E0,4.5705824E0,3.2537398E0,1.7419935E1,2.4916912E1,5.186449E1,1.1444515E1,1.7569096E1],"tree_param":{"num_deleted":"0","num_feature":"17","num_nodes":"15","size_leaf_vector":"1"}},{"base_weights":[5.191739E-2,-5.6326084E-2,3.793153E-1,5.835873E-2,-4.7974148E-1,5.318529E-2,6.6256565E-1,-8.7834686E-2,1.0639346E-2,7.288685E-2,-6.087577E-2,-2.2552472E-2,6.856109E-2,-1.1258854E-2,9.287998E-2],"categories":[],"categories_nodes":[],"categories_segments":[],"categories_sizes":[],"default_left":[0,0,0,0,0,0,0,0,0,0,0,0,0,0,0],"id":63,"left_children":[1,3,5,7,9,11,13,-1,-1,-1,-1,-1,-1,-1,-1],"loss_changes":[4.77923E0,4.969802E0,3.0582495E0,3.7366538E0,3.8427134E0,3.0899348E0,3.7851944E0,0E0,0E0,0E0,0E0,0E0,0E0,0E0,0E0],"parents":[2147483647,0,0,1,1,2,2,3,3,4,4,5,5,6,6],"right_children":[2,4,6,8,10,12,14,-1,-1,-1,-1,-1,-1,-1,-1],"split_conditions":[5.2211416E-1,1.3584194E-1,2.719862E-1,-1.3864379E0,1E0,1.3932393E0,-1.1002538E-1,-8.7834686E-2,1.0639346E-2,7.288685E-2,-6.087577E-2,-2.2552472E-2,6.856109E-2,-1.1258854E-2,9.287998E-2],"split_indices":[5,5,9,5,6,5,1,0,0,0,0,0,0,0,0],"split_type":[0,0,0,0,0,0,0,0,0,0,0,0,0,0,0],"sum_hessian":[1.3325626E2,1.0076841E2,3.2487843E1,7.9970146E1,2.0798264E1,1.5652997E1,1.6834845E1,3.057692E0,7.691245E1,1.5575807E0,1.9240683E1,1.1311441E1,4.341556E0,4.4514194E0,1.2383426E1],"tree_param":{"num_deleted":"0","num_feature":"17","num_nodes":"15","size_leaf_vector":"1"}},{"base_weights":[4.2256027E-2,-9.466227E-2,7.738762E-2,5.328126E-1,-2.7826004E-2,2.5036043E-2,8.805736E-2,3.4071907E-2,-1.299649E-2],"categories":[],"categories_nodes":[],"categories_segments":[],"categories_sizes":[],"default_left":[0,0,0,0,0,0,0,0,0],"id":64,"left_children":[1,-1,3,5,7,-1,-1,-1,-1],"loss_changes":[4.6063094E0,0E0,6.0969014E0,2.12421E0,3.9613688E0,0E0,0E0,0E0,0E0],"parents":[2147483647,0,0,2,2,3,3,4,4],"right_children":[2,-1,4,6,8,-1,-1,-1,-1],"split_conditions":[-1.4517382E0,-9.466227E-2,-2.2133496E-1,1E0,1E0,2.5036043E-2,8.805736E-2,3.4071907E-2,-1.299649E-2],"split_indices":[3,0,9,11,2,0,0,0,0],"split_type":[0,0,0,0,0,0,0,0,0],"sum_hessian":[1.2948175E2,3.552122E0,1.2592963E2,2.2870197E1,1.0305943E2,1.3569194E1,9.3010025E0,2.185712E1,8.120231E1],"tree_param":{"num_deleted":"0","num_feature":"17","num_nodes":"9","size_leaf_vector":"1"}},{"base_weights":[5.090927E-2,4.2231032E-1,-4.646756E-2,-2.3700383E-1,5.681991E-1,-1.9677526E-1,1.975401E-1,1.8414138E-2,-7.23404E-2,9.16199E-2,4.1979134E-2,2.3758618E-2,-3.0156646E-2,6.272936E-2,5.810408E-3],"categories":[],"categories_nodes":[],"categories_segments":[],"categories_sizes":[],"default_left":[0,0,0,0,0,0,0,0,0,0,0,0,0,0,0],"id":65,"left_children":[1,3,5,7,9,11,13,-1,-1,-1,-1,-1,-1,-1,-1],"loss_changes":[4.7918816E0,2.7807012E0,3.9062095E0,1.2987543E0,7.939229E-1,3.0644975E0,2.4020257E0,0E0,0E0,0E0,0E0,0E0,0E0,0E0,0E0],"parents":[2147483647,0,0,1,1,2,2,3,3,4,4,5,5,6,6],"right_children":[2,4,6,8,10,12,14,-1,-1,-1,-1,-1,-1,-1,-1],"split_conditions":[1E0,-9.988773E-1,5.7220644E-1,-2.3205934E-1,4.6774354E-2,-1.7843747E-1,-7.1968395E-1,1.8414138E-2,-7.23404E-2,9.16199E-2,4.1979134E-2,2.3758618E-2,-3.0156646E-2,6.272936E-2,5.810408E-3],"split_indices":[2,3,1,9,9,9,5,0,0,0,0,0,0,0,0],"split_type":[0,0,0,0,0,0,0,0,0,0,0,0,0,0,0],"sum_hessian":[1.3095479E2,2.6509417E1,1.04445366E2,4.6898875E0,2.1819529E1,6.475198E1,3.9693382E1,2.8466027E0,1.8432851E0,4.9765477E0,1.6842981E1,1.2339071E1,5.241291E1,8.866695E0,3.0826687E1],"tree_param":{"num_deleted":"0","num_feature":"17","num_nodes":"15","size_leaf_vector":"1"}},{"base_weights":[-3.583876E-2,5.42069E-1,-8.378752E-2,2.024253E-3,6.599708E-1,-1.1489569E-1,8.732461E-2,1.63147E-3,7.5873815E-2,-1.7206665E-2,3.0488357E-2],"categories":[],"categories_nodes":[],"categories_segments":[],"categories_sizes":[],"default_left":[0,0,0,0,0,0,0,0,0,0,0],"id":66,"left_children":[1,3,5,-1,7,9,-1,-1,-1,-1,-1],"loss_changes":[3.7030303E0,6.1704946E-1,3.7547834E0,0E0,5.169513E-1,2.9268217E0,0E0,0E0,0E0,0E0,0E0],"parents":[2147483647,0,0,1,1,2,2,4,4,5,5],"right_children":[2,4,6,-1,8,10,-1,-1,-1,-1,-1],"split_conditions":[1E0,-1.1002538E-1,1.8417954E0,2.024253E-3,-9.782927E-1,3E0,8.732461E-2,1.63147E-3,7.5873815E-2,-1.7206665E-2,3.0488357E-2],"split_indices":[6,1,3,0,3,4,0,0,0,0,0],"split_type":[0,0,0,0,0,0,0,0,0,0,0],"sum_hessian":[1.3099626E2,9.246509E0,1.21749756E2,1.9200712E0,7.326438E0,1.18769135E2,2.9806178E0,1.1296713E0,6.1967664E0,1.0505191E2,1.3717226E1],"tree_param":{"num_deleted":"0","num_feature":"17","num_nodes":"11","size_leaf_vector":"1"}},{"base_weights":[3.0870393E-3,-9.240749E-2,3.5204396E-2,4.8309183E-1,-4.399879E-2,-8.927897E-3,7.150164E-2,-3.388443E-2,1.0930296E-2],"categories":[],"categories_nodes":[],"categories_segments":[],"categories_sizes":[],"default_left":[0,0,0,0,0,0,0,0,0],"id":67,"left_children":[1,-1,3,5,7,-1,-1,-1,-1],"loss_changes":[3.8927789E0,0E0,4.5001216E0,2.5933948E0,4.927794E0,0E0,0E0,0E0,0E0],"parents":[2147483647,0,0,2,2,3,3,4,4],"right_children":[2,-1,4,6,8,-1,-1,-1,-1],"split_conditions":[-1.4517382E0,-9.240749E-2,-3.1785432E-1,-6.898204E-1,-4.019243E-1,-8.927897E-3,7.150164E-2,-3.388443E-2,1.0930296E-2],"split_indices":[3,0,9,5,3,0,0,0,0],"split_type":[0,0,0,0,0,0,0,0,0],"sum_hessian":[1.2863426E2,3.3769464E0,1.2525731E2,1.8055508E1,1.07201805E2,5.3837957E0,1.2671713E1,3.6257465E1,7.0944336E1],"tree_param":{"num_deleted":"0","num_feature":"17","num_nodes":"9","size_leaf_vector":"1"}},{"base_weights":[5.6679446E-2,-8.3112456E-2,9.491792E-2,-8.769838E-2,1.23943575E-1,1.314365E-1,6.0332157E-3],"categories":[],"categories_nodes":[],"categories_segments":[],"categories_sizes":[],"default_left":[0,0,0,0,0,0,0],"id":68,"left_children":[1,-1,3,-1,5,-1,-1],"loss_changes":[4.476244E0,0E0,3.6372118E0,0E0,9.183986E0,0E0,0E0],"parents":[2147483647,0,0,2,2,4,4],"right_children":[2,-1,4,-1,6,-1,-1],"split_conditions":[-6.0619396E-1,-8.3112456E-2,-1.3864379E0,-8.769838E-2,-1.3647952E0,1.314365E-1,6.0332157E-3],"split_indices":[1,0,5,0,5,0,0],"split_type":[0,0,0,0,0,0,0],"sum_hessian":[1.2853105E2,4.4511414E0,1.2407992E2,2.7509913E0,1.21328926E2,5.1570835E0,1.16171844E2],"tree_param":{"num_deleted":"0","num_feature":"17","num_nodes":"7","size_leaf_vector":"1"}},{"base_weights":[3.8412178E-3,-8.105521E-2,3.5479277E-2,8.2140195E-1,-8.7174E-3,1.9270819E-2,1.5733714E-1,-8.636578E-2,1.6745235E-3],"categories":[],"categories_nodes":[],"categories_segments":[],"categories_sizes":[],"default_left":[0,0,0,0,0,0,0,0,0],"id":69,"left_children":[1,-1,3,5,7,-1,-1,-1,-1],"loss_changes":[3.4013844E0,0E0,4.4170856E0,2.8973465E0,2.6526198E0,0E0,0E0,0E0,0E0],"parents":[2147483647,0,0,2,2,3,3,4,4],"right_children":[2,-1,4,6,8,-1,-1,-1,-1],"split_conditions":[-6.0619396E-1,-8.105521E-2,-5.441729E-1,1E0,-1.4929074E0,1.9270819E-2,1.5733714E-1,-8.636578E-2,1.6745235E-3],"split_indices":[1,0,1,11,3,0,0,0,0],"split_type":[0,0,0,0,0,0,0,0,0],"sum_hessian":[1.2989536E2,3.936879E0,1.2595847E2,5.7699423E0,1.2018853E2,3.8267825E0,1.9431598E0,2.523982E0,1.1766455E2],"tree_param":{"num_deleted":"0","num_feature":"17","num_nodes":"9","size_leaf_vector":"1"}},{"base_weights":[-4.9132384E-2,-2.1318157E-1,1.8448393E-1,5.212975E-1,-2.8260678E-1,-1.2455709E-1,2.8583807E-1,-7.396884E-2,1.10226505E-1,-6.718757E-2,-1.3804692E-2,9.026042E-3,-1.1489248E-1,6.719821E-2,7.707994E-3],"categories":[],"categories_nodes":[],"categories_segments":[],"categories_sizes":[],"default_left":[0,0,0,0,0,0,0,0,0,0,0,0,0,0,0],"id":70,"left_children":[1,3,5,7,9,11,13,-1,-1,-1,-1,-1,-1,-1,-1],"loss_changes":[4.8492284E0,3.93057E0,1.6741022E0,5.766869E0,3.7582674E0,3.0998147E0,3.1480467E0,0E0,0E0,0E0,0E0,0E0,0E0,0E0,0E0],"parents":[2147483647,0,0,1,1,2,2,3,3,4,4,5,5,6,6],"right_children":[2,4,6,8,10,12,14,-1,-1,-1,-1,-1,-1,-1,-1],"split_conditions":[2E0,-1.2684889E0,-6.6062105E-1,-1.3864379E0,-4.9791646E-1,-7.2297925E-1,1.0547983E-2,-7.396884E-2,1.10226505E-1,-6.718757E-2,-1.3804692E-2,9.026042E-3,-1.1489248E-1,6.719821E-2,7.707994E-3],"split_indices":[4,5,5,5,5,5,5,0,0,0,0,0,0,0,0],"split_type":[0,0,0,0,0,0,0,0,0,0,0,0,0,0,0],"sum_hessian":[1.24504364E2,7.319389E1,5.131047E1,5.7589297E0,6.743496E1,1.2615465E1,3.8695007E1,1.7302445E0,4.0286856E0,1.7273464E1,5.0161495E1,1.1182334E1,1.4331315E0,1.2799874E1,2.5895132E1],"tree_param":{"num_deleted":"0","num_feature":"17","num_nodes":"15","size_leaf_vector":"1"}},{"base_weights":[8.587478E-3,-2.8563717E-2,7.4523497E-1,-6.607132E-2,5.8160496E-1,9.626453E-2,8.49213E-3,-8.7191924E-2,-3.805171E-3,7.97446E-3,8.907708E-2],"categories":[],"categories_nodes":[],"categories_segments":[],"categories_sizes":[],"default_left":[0,0,0,0,0,0,0,0,0,0,0],"id":71,"left_children":[1,3,5,7,9,-1,-1,-1,-1,-1,-1],"loss_changes":[3.553973E0,2.8728454E0,8.132589E-1,2.6216197E0,1.0576279E0,0E0,0E0,0E0,0E0,0E0,0E0],"parents":[2147483647,0,0,1,1,2,2,3,3,4,4],"right_children":[2,4,6,8,10,-1,-1,-1,-1,-1,-1],"split_conditions":[1.7649696E0,1.4301038E0,5.508199E-1,-1.4517382E0,-3.103057E-1,9.626453E-2,8.49213E-3,-8.7191924E-2,-3.805171E-3,7.97446E-3,8.907708E-2],"split_indices":[5,3,9,3,5,0,0,0,0,0,0],"split_type":[0,0,0,0,0,0,0,0,0,0,0],"sum_hessian":[1.2808405E2,1.22849625E2,5.2344255E0,1.1657535E2,6.2742724E0,3.59342E0,1.6410053E0,2.905133E0,1.1367022E2,2.8713021E0,3.4029706E0],"tree_param":{"num_deleted":"0","num_feature":"17","num_nodes":"11","size_leaf_vector":"1"}},{"base_weights":[-4.385533E-2,-8.295674E-2,7.1849805E-1,-2.3115136E-1,1.1760335E-1,2.307853E-2,7.8978434E-2,4.633197E-2,-3.1441808E-2,1.7372623E-2,-7.8307115E-2],"categories":[],"categories_nodes":[],"categories_segments":[],"categories_sizes":[],"default_left":[0,0,0,0,0,0,0,0,0,0,0],"id":72,"left_children":[1,3,5,7,9,-1,-1,-1,-1,-1,-1],"loss_changes":[3.866535E0,3.6644397E0,3.7953377E-2,4.234729E0,2.7980976E0,0E0,0E0,0E0,0E0,0E0,0E0],"parents":[2147483647,0,0,1,1,2,2,3,3,4,4],"right_children":[2,4,6,8,10,-1,-1,-1,-1,-1,-1],"split_conditions":[1.7649696E0,2E0,-2.960886E-1,-1.2225163E0,1.5645436E0,2.307853E-2,7.8978434E-2,4.633197E-2,-3.1441808E-2,1.7372623E-2,-7.8307115E-2],"split_indices":[5,4,1,5,1,0,0,0,0,0,0],"split_type":[0,0,0,0,0,0,0,0,0,0,0],"sum_hessian":[1.2671041E2,1.2137617E2,5.334248E0,6.971267E1,5.1663494E1,1.2206286E0,4.1136193E0,6.974962E0,6.273771E1,4.9392838E1,2.2706547E0],"tree_param":{"num_deleted":"0","num_feature":"17","num_nodes":"11","size_leaf_vector":"1"}},{"base_weights":[-1.1107908E-2,-7.992854E-2,1.895868E-2,1.031487E0,-3.383535E-2,3.796403E-2,1.700748E-1,-1.4222257E-2,1.9352825E-2],"categories":[],"categories_nodes":[],"categories_segments":[],"categories_sizes":[],"default_left":[0,0,0,0,0,0,0,0,0],"id":73,"left_children":[1,-1,3,5,7,-1,-1,-1,-1],"loss_changes":[3.0350468E0,0E0,6.6488214E0,2.043109E0,2.9493432E0,0E0,0E0,0E0,0E0],"parents":[2147483647,0,0,2,2,3,3,4,4],"right_children":[2,-1,4,6,8,-1,-1,-1,-1],"split_conditions":[-6.0619396E-1,-7.992854E-2,-5.441729E-1,1E0,7.5826967E-1,3.796403E-2,1.700748E-1,-1.4222257E-2,1.9352825E-2],"split_indices":[1,0,1,11,1,0,0,0,0],"split_type":[0,0,0,0,0,0,0,0,0],"sum_hessian":[1.2643346E2,3.7057452E0,1.22727715E2,5.163318E0,1.1756439E2,3.4096458E0,1.7536722E0,7.986579E1,3.7698605E1],"tree_param":{"num_deleted":"0","num_feature":"17","num_nodes":"9","size_leaf_vector":"1"}},{"base_weights":[-1.1536994E-2,4.9153686E-1,-6.466926E-2,-8.143752E-2,9.0694976E-1,-3.823833E-1,2.852325E-2,-1.0810155E-2,1.1842302E-1,-5.450232E-2,5.1742204E-2,-7.976072E-4,8.400022E-2],"categories":[],"categories_nodes":[],"categories_segments":[],"categories_sizes":[],"default_left":[0,0,0,0,0,0,0,0,0,0,0,0,0],"id":74,"left_children":[1,3,5,-1,7,9,11,-1,-1,-1,-1,-1,-1],"loss_changes":[3.4114175E0,7.353998E0,3.4231157E0,0E0,2.8650541E0,4.117169E0,2.6734703E0,0E0,0E0,0E0,0E0,0E0,0E0],"parents":[2147483647,0,0,1,1,2,2,4,4,5,5,6,6],"right_children":[2,4,6,-1,8,10,12,-1,-1,-1,-1,-1,-1],"split_conditions":[-1.2303599E0,-1.3864379E0,-5.827092E-1,-8.143752E-2,-4.2013076E-1,1.068375E0,1.5330267E0,-1.0810155E-2,1.1842302E-1,-5.450232E-2,5.1742204E-2,-7.976072E-4,8.400022E-2],"split_indices":[5,5,5,0,1,1,3,0,0,0,0,0,0],"split_type":[0,0,0,0,0,0,0,0,0,0,0,0,0],"sum_hessian":[1.25438416E2,1.1194452E1,1.14243965E2,2.469817E0,8.724635E0,2.520644E1,8.903752E1,2.002853E0,6.7217827E0,2.168175E1,3.5246918E0,8.615265E1,2.8848686E0],"tree_param":{"num_deleted":"0","num_feature":"17","num_nodes":"13","size_leaf_vector":"1"}},{"base_weights":[2.932661E-3,5.531435E-1,-4.0632233E-2,1.2688273E-1,8.5055506E-1,-1.6399546E-1,1.5516725E-1,-5.3180695E-2,4.559268E-2,2.5947858E-2,9.35657E-2,-2.057538E-2,6.202766E-2,-4.116034E-2,2.4446677E-2],"categories":[],"categories_nodes":[],"categories_segments":[],"categories_sizes":[],"default_left":[0,0,0,0,0,0,0,0,0,0,0,0,0,0,0],"id":75,"left_children":[1,3,5,7,9,11,13,-1,-1,-1,-1,-1,-1,-1,-1],"loss_changes":[3.0226333E0,1.0649493E0,2.8493938E0,1.3212804E0,2.2512674E-2,2.4924684E0,2.4137516E0,0E0,0E0,0E0,0E0,0E0,0E0,0E0,0E0],"parents":[2147483647,0,0,1,1,2,2,3,3,4,4,5,5,6,6],"right_children":[2,4,6,8,10,12,14,-1,-1,-1,-1,-1,-1,-1,-1],"split_conditions":[1E0,-5.691736E-2,1.5385948E-1,-1.1002538E-1,-2.8296258E-2,1.7649696E0,-3.5810968E-1,-5.3180695E-2,4.559268E-2,2.5947858E-2,9.35657E-2,-2.057538E-2,6.202766E-2,-4.116034E-2,2.4446677E-2],"split_indices":[6,5,3,1,9,5,1,0,0,0,0,0,0,0,0],"split_type":[0,0,0,0,0,0,0,0,0,0,0,0,0,0,0],"sum_hessian":[1.2416365E2,8.251596E0,1.15912056E2,3.9775107E0,4.274086E0,7.120921E1,4.4702847E1,1.1197486E0,2.857762E0,1.0475247E0,3.2265613E0,6.830973E1,2.8994818E0,5.5933623E0,3.910948E1],"tree_param":{"num_deleted":"0","num_feature":"17","num_nodes":"15","size_leaf_vector":"1"}},{"base_weights":[2.9018965E-2,-7.768952E-2,5.6650657E-2,6.9351804E-1,1.7903611E-2,-3.3383623E-2,1.0437119E-1,-5.764106E-3,3.0227784E-2],"categories":[],"categories_nodes":[],"categories_segments":[],"categories_sizes":[],"default_left":[0,0,0,0,0,0,0,0,0],"id":76,"left_children":[1,-1,3,5,7,-1,-1,-1,-1],"loss_changes":[2.8730109E0,0E0,3.0415654E0,2.8924623E0,2.545718E0,0E0,0E0,0E0,0E0],"parents":[2147483647,0,0,2,2,3,3,4,4],"right_children":[2,-1,4,6,8,-1,-1,-1,-1],"split_conditions":[-6.0619396E-1,-7.768952E-2,-5.441729E-1,-3.285787E-1,6.183905E-1,-3.3383623E-2,1.0437119E-1,-5.764106E-3,3.0227784E-2],"split_indices":[1,0,1,9,5,0,0,0,0],"split_type":[0,0,0,0,0,0,0,0,0],"sum_hessian":[1.2603884E2,3.2792475E0,1.227596E2,6.0712156E0,1.1668838E2,1.5552708E0,4.515945E0,9.2826195E1,2.3862186E1],"tree_param":{"num_deleted":"0","num_feature":"17","num_nodes":"9","size_leaf_vector":"1"}},{"base_weights":[5.024378E-2,3.339771E-1,-2.7416976E-2,6.552023E-2,6.7350036E-1,-5.9004437E-2,8.056172E-2,-1.563388E-2,8.096495E-2,8.087813E-2,-2.6108352E-2,4.3513604E-2,-9.55357E-3],"categories":[],"categories_nodes":[],"categories_segments":[],"categories_sizes":[],"default_left":[0,0,0,0,0,0,0,0,0,0,0,0,0],"id":77,"left_children":[1,3,5,7,9,11,-1,-1,-1,-1,-1,-1,-1],"loss_changes":[2.75792E0,2.4061615E0,2.648958E0,2.7879062E0,1.6983023E0,1.7778238E0,0E0,0E0,0E0,0E0,0E0,0E0,0E0],"parents":[2147483647,0,0,1,1,2,2,3,3,4,4,5,5],"right_children":[2,4,6,8,10,12,-1,-1,-1,-1,-1,-1,-1],"split_conditions":[1E0,3.861432E-1,1.718288E0,5.501555E-1,1.1036847E0,-1.3647952E0,8.056172E-2,-1.563388E-2,8.096495E-2,8.087813E-2,-2.6108352E-2,4.3513604E-2,-9.55357E-3],"split_indices":[2,1,3,5,5,5,0,0,0,0,0,0,0],"split_type":[0,0,0,0,0,0,0,0,0,0,0,0,0],"sum_hessian":[1.2374564E2,2.5882727E1,9.7862915E1,1.5120283E1,1.07624445E1,9.5182884E1,2.6800294E0,1.2256086E1,2.8641968E0,9.5191555E0,1.2432892E0,5.8012257E0,8.938166E1],"tree_param":{"num_deleted":"0","num_feature":"17","num_nodes":"13","size_leaf_vector":"1"}},{"base_weights":[-1.0498719E-2,5.101945E-1,-5.1039323E-2,8.87887E-2,6.7985976E-1,-8.386823E-2,-2.556694E-2,2.4306932E-2,-1.2950565E-2,1.6230749E-2,7.540087E-2,1.01087056E-1,-6.94577E-3],"categories":[],"categories_nodes":[],"categories_segments":[],"categories_sizes":[],"default_left":[0,0,0,0,0,0,0,0,0,0,0,0,0],"id":78,"left_children":[1,3,5,7,9,-1,11,-1,-1,-1,-1,-1,-1],"loss_changes":[2.6081038E0,5.77873E-1,2.2736328E0,1.5651347E-1,1.16089106E-1,0E0,5.1578393E0,0E0,0E0,0E0,0E0,0E0,0E0],"parents":[2147483647,0,0,1,1,2,2,3,3,4,4,6,6],"right_children":[2,4,6,8,10,-1,12,-1,-1,-1,-1,-1,-1],"split_conditions":[1E0,-4.225089E-1,-1.3864379E0,-2.8296258E-2,-1.7204645E-1,-8.386823E-2,-1.3647952E0,2.4306932E-2,-1.2950565E-2,1.6230749E-2,7.540087E-2,1.01087056E-1,-6.94577E-3],"split_indices":[6,3,5,9,1,0,5,0,0,0,0,0,0],"split_type":[0,0,0,0,0,0,0,0,0,0,0,0,0],"sum_hessian":[1.2131926E2,7.926646E0,1.1339262E2,2.712585E0,5.2140613E0,2.5521228E0,1.1084049E2,1.5228264E0,1.1897585E0,1.05302E0,4.1610413E0,3.608063E0,1.0723243E2],"tree_param":{"num_deleted":"0","num_feature":"17","num_nodes":"13","size_leaf_vector":"1"}},{"base_weights":[-3.247015E-2,-9.330792E-2,5.047611E-1,-2.2844006E-1,9.0436704E-2,8.1685716E-1,2.4880557E-1,-3.6667276E-2,2.2303177E-2,1.4970812E-2,-8.1249855E-2,2.6334977E-2,9.005877E-2,-5.6481596E-2,4.4336185E-2],"categories":[],"categories_nodes":[],"categories_segments":[],"categories_sizes":[],"default_left":[0,0,0,0,0,0,0,0,0,0,0,0,0,0,0],"id":79,"left_children":[1,3,5,7,9,11,13,-1,-1,-1,-1,-1,-1,-1,-1],"loss_changes":[4.063428E0,2.7824204E0,8.0777407E-1,4.09935E0,2.68259E0,6.8249702E-3,1.5787534E0,0E0,0E0,0E0,0E0,0E0,0E0,0E0,0E0],"parents":[2147483647,0,0,1,1,2,2,3,3,4,4,5,5,6,6],"right_children":[2,4,6,8,10,12,14,-1,-1,-1,-1,-1,-1,-1,-1],"split_conditions":[1.1443937E0,2E0,1.6474245E-1,9.443329E-1,1.5645436E0,-1.2870615E0,-3.8133973E-1,-3.6667276E-2,2.2303177E-2,1.4970812E-2,-8.1249855E-2,2.6334977E-2,9.005877E-2,-5.6481596E-2,4.4336185E-2],"split_indices":[5,4,9,1,1,3,3,0,0,0,0,0,0,0,0],"split_type":[0,0,0,0,0,0,0,0,0,0,0,0,0,0,0],"sum_hessian":[1.21883865E2,1.1022765E2,1.1656211E1,6.3375713E1,4.685194E1,4.2647004E0,7.39151E0,4.8663605E1,1.4712108E1,4.4748695E1,2.1032426E0,1.1050279E0,3.1596727E0,1.0591435E0,6.3323665E0],"tree_param":{"num_deleted":"0","num_feature":"17","num_nodes":"15","size_leaf_vector":"1"}},{"base_weights":[2.5340071E-2,-8.498041E-2,5.1969852E-2,4.5291936E-1,-4.3938257E-2,-5.4546585E-3,6.564645E-2,-8.448155E-3,6.1084237E-2],"categories":[],"categories_nodes":[],"categories_segments":[],"categories_sizes":[],"default_left":[0,0,0,0,0,0,0,0,0],"id":80,"left_children":[1,-1,3,5,7,-1,-1,-1,-1],"loss_changes":[2.8903992E0,0E0,4.6138887E0,2.426909E0,2.6350813E0,0E0,0E0,0E0,0E0],"parents":[2147483647,0,0,2,2,3,3,4,4],"right_children":[2,-1,4,6,8,-1,-1,-1,-1],"split_conditions":[-1.4517382E0,-8.498041E-2,-1.8916185E-1,-6.3832456E-1,1.471273E0,-5.4546585E-3,6.564645E-2,-8.448155E-3,6.1084237E-2],"split_indices":[3,0,9,5,3,0,0,0,0],"split_type":[0,0,0,0,0,0,0,0,0],"sum_hessian":[1.2113033E2,2.6641932E0,1.1846614E2,2.2148905E1,9.631724E1,6.5502486E0,1.5598657E1,9.152132E1,4.7959204E0],"tree_param":{"num_deleted":"0","num_feature":"17","num_nodes":"9","size_leaf_vector":"1"}},{"base_weights":[1.9424934E-2,5.8050734E-1,-2.2977913E-2,-1.9304351E-3,7.1408933E-1,-4.4866454E-2,7.742642E-2,5.049131E-3,8.14198E-2,-8.020977E-2,-2.2385702E-3],"categories":[],"categories_nodes":[],"categories_segments":[],"categories_sizes":[],"default_left":[0,0,0,0,0,0,0,0,0,0,0],"id":81,"left_children":[1,3,5,-1,7,9,-1,-1,-1,-1,-1],"loss_changes":[2.9927757E0,7.2185946E-1,2.0833178E0,0E0,4.4078183E-1,1.9431465E0,0E0,0E0,0E0,0E0,0E0],"parents":[2147483647,0,0,1,1,2,2,4,4,5,5],"right_children":[2,4,6,-1,8,10,-1,-1,-1,-1,-1],"split_conditions":[1E0,-2.3406753E-1,1.8417954E0,-1.9304351E-3,-9.782927E-1,-1.3864379E0,7.742642E-2,5.049131E-3,8.14198E-2,-8.020977E-2,-2.2385702E-3],"split_indices":[6,1,3,0,3,5,0,0,0,0,0],"split_type":[0,0,0,0,0,0,0,0,0,0,0],"sum_hessian":[1.24231186E2,7.8372283E0,1.1639396E2,1.583311E0,6.253917E0,1.14202225E2,2.1917365E0,1.0169759E0,5.2369413E0,2.2928147E0,1.1190941E2],"tree_param":{"num_deleted":"0","num_feature":"17","num_nodes":"11","size_leaf_vector":"1"}},{"base_weights":[2.816938E-3,-3.2093186E-2,8.0708677E-1,-1.5095943E-1,1.3248317E-1,9.5696524E-2,2.6598949E-2,5.463174E-2,-2.3685025E-2,-6.641929E-2,1.6613223E-2],"categories":[],"categories_nodes":[],"categories_segments":[],"categories_sizes":[],"default_left":[0,0,0,0,0,0,0,0,0,0,0],"id":82,"left_children":[1,3,5,7,9,-1,-1,-1,-1,-1,-1],"loss_changes":[3.4102807E0,2.2987616E0,1.5522337E-1,4.2080626E0,1.4341686E0,0E0,0E0,0E0,0E0,0E0,0E0],"parents":[2147483647,0,0,1,1,2,2,3,3,4,4],"right_children":[2,4,6,8,10,-1,-1,-1,-1,-1,-1],"split_conditions":[1.7649696E0,2E0,5.7220644E-1,-1.2225163E0,-1.4517382E0,9.5696524E-2,2.6598949E-2,5.463174E-2,-2.3685025E-2,-6.641929E-2,1.6613223E-2],"split_indices":[5,4,1,5,3,0,0,0,0,0,0],"split_type":[0,0,0,0,0,0,0,0,0,0,0],"sum_hessian":[1.195385E2,1.1548582E2,4.0526786E0,6.710301E1,4.838281E1,2.5717628E0,1.480916E0,6.7713537E0,6.0331657E1,1.2013272E0,4.718148E1],"tree_param":{"num_deleted":"0","num_feature":"17","num_nodes":"11","size_leaf_vector":"1"}},{"base_weights":[3.3874042E-2,-7.534846E-2,5.968489E-2,6.858637E-1,2.2834608E-2,-4.7359247E-2,1.0684613E-1,-7.771544E-2,4.4844775E-3],"categories":[],"categories_nodes":[],"categories_segments":[],"categories_sizes":[],"default_left":[0,0,0,0,0,0,0,0,0],"id":83,"left_children":[1,-1,3,5,7,-1,-1,-1,-1],"loss_changes":[2.4941416E0,0E0,2.6983373E0,3.3905866E0,2.0089517E0,0E0,0E0,0E0,0E0],"parents":[2147483647,0,0,2,2,3,3,4,4],"right_children":[2,-1,4,6,8,-1,-1,-1,-1],"split_conditions":[-6.0619396E-1,-7.534846E-2,-5.441729E-1,-3.285787E-1,-1.3864379E0,-4.7359247E-2,1.0684613E-1,-7.771544E-2,4.4844775E-3],"split_indices":[1,0,1,9,5,0,0,0,0],"split_type":[0,0,0,0,0,0,0,0,0],"sum_hessian":[1.195158E2,2.8986957E0,1.166171E2,5.5025644E0,1.1111454E2,1.3062274E0,4.1963367E0,2.0565777E0,1.0905796E2],"tree_param":{"num_deleted":"0","num_feature":"17","num_nodes":"9","size_leaf_vector":"1"}},{"base_weights":[4.7045156E-2,-8.069096E-2,7.022224E-2,4.303079E-1,-1.3498116E-2,-3.293199E-2,5.9178203E-2,-1.4337542E-2,1.6719697E-2],"categories":[],"categories_nodes":[],"categories_segments":[],"categories_sizes":[],"default_left":[0,0,0,0,0,0,0,0,0],"id":84,"left_children":[1,-1,3,5,7,-1,-1,-1,-1],"loss_changes":[2.4701054E0,0E0,3.6124454E0,2.966879E0,2.3247473E0,0E0,0E0,0E0,0E0],"parents":[2147483647,0,0,2,2,3,3,4,4],"right_children":[2,-1,4,6,8,-1,-1,-1,-1],"split_conditions":[-1.4517382E0,-8.069096E-2,-1.9988622E-1,-2.960886E-1,2E0,-3.293199E-2,5.9178203E-2,-1.4337542E-2,1.6719697E-2],"split_indices":[3,0,9,1,4,0,0,0,0],"split_type":[0,0,0,0,0,0,0,0,0],"sum_hessian":[1.20939156E2,2.3021455E0,1.1863701E2,2.1598955E1,9.7038055E1,3.6041903E0,1.7994764E1,5.657818E1,4.0459877E1],"tree_param":{"num_deleted":"0","num_feature":"17","num_nodes":"9","size_leaf_vector":"1"}},{"base_weights":[3.7052864E-4,-2.21611E-2,7.790268E-1,-7.99507E-4,-1.01299465E-1,2.3325285E-2,9.1638885E-2,-4.9083093E-3,3.5470314E-2],"categories":[],"categories_nodes":[],"categories_segments":[],"categories_sizes":[],"default_left":[0,0,0,0,0,0,0,0,0],"id":85,"left_children":[1,3,5,7,-1,-1,-1,-1,-1],"loss_changes":[2.1111226E0,2.4747884E0,3.9944172E-2,1.9998695E0,0E0,0E0,0E0,0E0,0E0],"parents":[2147483647,0,0,1,1,2,2,3,3],"right_children":[2,4,6,8,-1,-1,-1,-1,-1],"split_conditions":[1.8746489E0,1.6885858E0,7.894747E-2,3E0,-1.01299465E-1,2.3325285E-2,9.1638885E-2,-4.9083093E-3,3.5470314E-2],"split_indices":[1,1,9,4,0,0,0,0,0],"split_type":[0,0,0,0,0,0,0,0,0],"sum_hessian":[1.183463E2,1.1596229E2,2.3840096E0,1.1449468E2,1.4676085E0,1.0218861E0,1.3621234E0,1.0156261E2,1.2932076E1],"tree_param":{"num_deleted":"0","num_feature":"17","num_nodes":"9","size_leaf_vector":"1"}},{"base_weights":[-1.2470314E-2,4.8351485E-1,-4.688067E-2,-9.708186E-3,6.930301E-2,4.852251E-1,-7.959766E-2,-7.3279224E-2,1.1317809E-1,-1.0188434E-2,7.3638685E-2],"categories":[],"categories_nodes":[],"categories_segments":[],"categories_sizes":[],"default_left":[0,0,0,0,0,0,0,0,0,0,0],"id":86,"left_children":[1,3,5,-1,-1,7,9,-1,-1,-1,-1],"loss_changes":[2.0290148E0,1.0057758E0,1.9682568E0,0E0,0E0,5.996541E0,1.9896138E0,0E0,0E0,0E0,0E0],"parents":[2147483647,0,0,1,1,2,2,5,5,6,6],"right_children":[2,4,6,-1,-1,8,10,-1,-1,-1,-1],"split_conditions":[1E0,-1.1002538E-1,-1.3647952E0,-9.708186E-3,6.930301E-2,-1.3864379E0,1.8417954E0,-7.3279224E-2,1.1317809E-1,-1.0188434E-2,7.3638685E-2],"split_indices":[6,1,5,0,0,5,3,0,0,0,0],"split_type":[0,0,0,0,0,0,0,0,0,0,0],"sum_hessian":[1.1655694E2,6.715104E0,1.09841835E2,1.9229555E0,4.7921486E0,5.561365E0,1.0428047E2,1.8821985E0,3.6791668E0,1.0235989E2,1.920579E0],"tree_param":{"num_deleted":"0","num_feature":"17","num_nodes":"11","size_leaf_vector":"1"}},{"base_weights":[-1.1807093E-2,-7.89539E-2,2.87914E-1,-7.8650944E-2,-5.4966114E-2,2.2951385E-2,7.312182E-1,2.8040528E-2,-1.3820529E-2,1.8344862E-2,-1.035556E-1,1.1822297E-2,8.997726E-2],"categories":[],"categories_nodes":[],"categories_segments":[],"categories_sizes":[],"default_left":[0,0,0,0,0,0,0,0,0,0,0,0,0],"id":87,"left_children":[1,3,5,-1,7,9,11,-1,-1,-1,-1,-1,-1],"loss_changes":[2.4348083E0,1.6319954E0,2.5851161E0,0E0,2.7337668E0,2.7207947E0,7.465043E-1,0E0,0E0,0E0,0E0,0E0,0E0],"parents":[2147483647,0,0,1,1,2,2,4,4,5,5,6,6],"right_children":[2,4,6,-1,8,10,12,-1,-1,-1,-1,-1,-1],"split_conditions":[7.508125E-1,-1.4517382E0,2.2761883E-1,-7.8650944E-2,-1.9988622E-1,1.157945E-1,8.511023E-1,2.8040528E-2,-1.3820529E-2,1.8344862E-2,-1.035556E-1,1.1822297E-2,8.997726E-2],"split_indices":[3,3,5,0,9,5,9,0,0,0,0,0,0],"split_type":[0,0,0,0,0,0,0,0,0,0,0,0,0],"sum_hessian":[1.18852844E2,9.77013E1,2.115154E1,2.161344E0,9.5539955E1,1.3897055E1,7.254487E0,1.852677E1,7.701319E1,1.278518E1,1.1118746E0,1.9314865E0,5.3230004E0],"tree_param":{"num_deleted":"0","num_feature":"17","num_nodes":"13","size_leaf_vector":"1"}},{"base_weights":[-1.0928572E-2,-3.2186415E-2,7.509884E-2,-5.820036E-2,5.409764E-1,-3.9081224E-3,-8.670074E-2,8.2342485E-3,6.512707E-2],"categories":[],"categories_nodes":[],"categories_segments":[],"categories_sizes":[],"default_left":[0,0,0,0,0,0,0,0,0],"id":88,"left_children":[1,3,-1,5,7,-1,-1,-1,-1],"loss_changes":[1.9702289E0,1.7886403E0,0E0,1.7233377E0,2.1010518E-1,0E0,0E0,0E0,0E0],"parents":[2147483647,0,0,1,1,3,3,4,4],"right_children":[2,4,-1,6,8,-1,-1,-1,-1],"split_conditions":[1.8746489E0,1.7649696E0,7.509884E-2,1.6885858E0,-2.960886E-1,-3.9081224E-3,-8.670074E-2,8.2342485E-3,6.512707E-2],"split_indices":[1,5,0,1,1,0,0,0,0],"split_type":[0,0,0,0,0,0,0,0,0],"sum_hessian":[1.1915139E2,1.16849E2,2.3023858E0,1.1263532E2,4.2136827E0,1.11058365E2,1.576954E0,1.1554734E0,3.0582094E0],"tree_param":{"num_deleted":"0","num_feature":"17","num_nodes":"9","size_leaf_vector":"1"}},{"base_weights":[9.305368E-3,-7.4128546E-2,3.3006497E-2,5.653464E-1,-4.5073978E-4,4.503215E-3,1.2206999E-1,2.4923323E-2,-6.4722463E-3],"categories":[],"categories_nodes":[],"categories_segments":[],"categories_sizes":[],"default_left":[0,0,0,0,0,0,0,0,0],"id":89,"left_children":[1,-1,3,5,7,-1,-1,-1,-1],"loss_changes":[2.1702852E0,0E0,2.0998695E0,2.3223114E0,1.8120812E0,0E0,0E0,0E0,0E0],"parents":[2147483647,0,0,2,2,3,3,4,4],"right_children":[2,-1,4,6,8,-1,-1,-1,-1],"split_conditions":[-6.0619396E-1,-7.4128546E-2,-5.441729E-1,1E0,1E0,4.503215E-3,1.2206999E-1,2.4923323E-2,-6.4722463E-3],"split_indices":[1,0,1,11,2,0,0,0,0],"split_type":[0,0,0,0,0,0,0,0,0],"sum_hessian":[1.1962036E2,2.7348251E0,1.1688554E2,5.9717116E0,1.10913826E2,3.9245508E0,2.047161E0,2.211669E1,8.8797134E1],"tree_param":{"num_deleted":"0","num_feature":"17","num_nodes":"9","size_leaf_vector":"1"}},{"base_weights":[3.476602E-2,1.041566E-2,9.797298E-2,4.9439943E-1,-2.356206E-2,9.26219E-3,6.405547E-2,-7.1978546E-3,3.2530855E-2],"categories":[],"categories_nodes":[],"categories_segments":[],"categories_sizes":[],"default_left":[0,0,0,0,0,0,0,0,0],"id":90,"left_children":[1,3,-1,5,7,-1,-1,-1,-1],"loss_changes":[2.7133908E0,1.9258401E0,0E0,3.9173317E-1,1.8767157E0,0E0,0E0,0E0,0E0],"parents":[2147483647,0,0,1,1,3,3,4,4],"right_children":[2,4,-1,6,8,-1,-1,-1,-1],"split_conditions":[1.8746489E0,1E0,9.797298E-2,-4.225089E-1,3E0,9.26219E-3,6.405547E-2,-7.1978546E-3,3.2530855E-2],"split_indices":[1,6,0,3,4,0,0,0,0],"split_type":[0,0,0,0,0,0,0,0,0],"sum_hessian":[1.17364655E2,1.1540193E2,1.9627198E0,6.6813326E0,1.08720604E2,2.217953E0,4.46338E0,9.616802E1,1.2552579E1],"tree_param":{"num_deleted":"0","num_feature":"17","num_nodes":"9","size_leaf_vector":"1"}},{"base_weights":[1.5263425E-2,-7.1513556E-2,3.686934E-2,6.2760216E-1,-2.0790836E-3,1.03980955E-2,1.3878831E-1,-4.9482603E-2,4.2606243E-3],"categories":[],"categories_nodes":[],"categories_segments":[],"categories_sizes":[],"default_left":[0,0,0,0,0,0,0,0,0],"id":91,"left_children":[1,-1,3,5,7,-1,-1,-1,-1],"loss_changes":[1.873116E0,0E0,2.6383293E0,2.679239E0,2.410542E0,0E0,0E0,0E0,0E0],"parents":[2147483647,0,0,2,2,3,3,4,4],"right_children":[2,-1,4,6,8,-1,-1,-1,-1],"split_conditions":[-6.0619396E-1,-7.1513556E-2,-5.441729E-1,1E0,-3.5810968E-1,1.03980955E-2,1.3878831E-1,-4.9482603E-2,4.2606243E-3],"split_indices":[1,0,1,11,1,0,0,0,0],"split_type":[0,0,0,0,0,0,0,0,0],"sum_hessian":[1.1602407E2,2.4112566E0,1.13612816E2,6.092585E0,1.0752023E2,4.2809634E0,1.8116215E0,8.102297E0,9.941793E1],"tree_param":{"num_deleted":"0","num_feature":"17","num_nodes":"9","size_leaf_vector":"1"}},{"base_weights":[-1.9997824E-2,-4.9439233E-2,7.3979115E-1,-7.849291E-2,5.56837E-1,9.045877E-2,1.7471895E-2,2.0911184E-3,-2.314945E-2,-1.4941632E-2,8.390612E-2],"categories":[],"categories_nodes":[],"categories_segments":[],"categories_sizes":[],"default_left":[0,0,0,0,0,0,0,0,0,0,0],"id":92,"left_children":[1,3,5,7,9,-1,-1,-1,-1,-1,-1],"loss_changes":[2.6680388E0,2.0550532E0,2.5643635E-1,1.6754144E0,1.190805E0,0E0,0E0,0E0,0E0,0E0,0E0],"parents":[2147483647,0,0,1,1,2,2,3,3,4,4],"right_children":[2,4,6,8,10,-1,-1,-1,-1,-1,-1],"split_conditions":[1.7649696E0,1.471273E0,5.7220644E-1,1.157945E-1,-6.3832456E-1,9.045877E-2,1.7471895E-2,2.0911184E-3,-2.314945E-2,-1.4941632E-2,8.390612E-2],"split_indices":[5,3,1,5,5,0,0,0,0,0,0],"split_type":[0,0,0,0,0,0,0,0,0,0,0],"sum_hessian":[1.16637535E2,1.1318655E2,3.4509866E0,1.0884124E2,4.3453045E0,2.2066174E0,1.2443693E0,6.649998E1,4.2341263E1,1.3750015E0,2.9703033E0],"tree_param":{"num_deleted":"0","num_feature":"17","num_nodes":"11","size_leaf_vector":"1"}},{"base_weights":[-3.7766762E-2,4.4270116E-1,-7.012475E-2,-9.968045E-3,6.3454753E-1,4.5099062E-1,-1.0116202E-1,1.3506062E-2,8.543982E-2,-7.417237E-2,1.09196715E-1,-3.5908155E-2,-2.1671392E-3],"categories":[],"categories_nodes":[],"categories_segments":[],"categories_sizes":[],"default_left":[0,0,0,0,0,0,0,0,0,0,0,0,0],"id":93,"left_children":[1,3,5,-1,7,9,11,-1,-1,-1,-1,-1,-1],"loss_changes":[1.8680525E0,8.5325456E-1,1.8500955E0,0E0,5.1539254E-1,5.7444215E0,2.1677418E0,0E0,0E0,0E0,0E0,0E0,0E0],"parents":[2147483647,0,0,1,1,2,2,4,4,5,5,6,6],"right_children":[2,4,6,-1,8,10,12,-1,-1,-1,-1,-1,-1],"split_conditions":[1E0,-1.1002538E-1,-1.3647952E0,-9.968045E-3,-4.225089E-1,-1.3864379E0,-6.1858416E-1,1.3506062E-2,8.543982E-2,-7.417237E-2,1.09196715E-1,-3.5908155E-2,-2.1671392E-3],"split_indices":[6,1,5,0,3,5,5,0,0,0,0,0,0],"split_type":[0,0,0,0,0,0,0,0,0,0,0,0,0],"sum_hessian":[1.1715853E2,6.592241E0,1.1056629E2,1.8480141E0,4.744227E0,5.454509E0,1.0511178E2,1.9433609E0,2.800866E0,1.8517104E0,3.6027985E0,2.3934698E1,8.117708E1],"tree_param":{"num_deleted":"0","num_feature":"17","num_nodes":"13","size_leaf_vector":"1"}},{"base_weights":[-6.617178E-3,-7.024907E-2,1.3293243E-2,-7.374364E-2,3.1824317E-2,3.4042757E-2,-3.331149E-3],"categories":[],"categories_nodes":[],"categories_segments":[],"categories_sizes":[],"default_left":[0,0,0,0,0,0,0],"id":94,"left_children":[1,-1,3,-1,5,-1,-1],"loss_changes":[1.6330719E0,0E0,1.6221482E0,0E0,2.2848887E0,0E0,0E0],"parents":[2147483647,0,0,2,2,4,4],"right_children":[2,-1,4,-1,6,-1,-1],"split_conditions":[-6.0619396E-1,-7.024907E-2,-1.4517382E0,-7.374364E-2,-2.3205934E-1,3.4042757E-2,-3.331149E-3],"split_indices":[1,0,3,0,9,0,0],"split_type":[0,0,0,0,0,0,0],"sum_hessian":[1.1619362E2,2.2784579E0,1.1391516E2,1.809614E0,1.12105545E2,1.8801334E1,9.3304214E1],"tree_param":{"num_deleted":"0","num_feature":"17","num_nodes":"7","size_leaf_vector":"1"}},{"base_weights":[-5.23581E-3,-3.1493694E-2,6.5774083E-1,2.2563587E-1,-9.95273E-2,1.6844181E-2,7.670986E-2,-3.455603E-2,3.4176808E-2,-2.2291249E-2,8.976756E-3],"categories":[],"categories_nodes":[],"categories_segments":[],"categories_sizes":[],"default_left":[0,0,0,0,0,0,0,0,0,0,0],"id":95,"left_children":[1,3,5,7,9,-1,-1,-1,-1,-1,-1],"loss_changes":[2.0109622E0,1.9629331E0,1.06292486E-1,1.6779519E0,2.0849502E0,0E0,0E0,0E0,0E0,0E0,0E0],"parents":[2147483647,0,0,1,1,2,2,3,3,4,4],"right_children":[2,4,6,8,10,-1,-1,-1,-1,-1,-1],"split_conditions":[1.5330267E0,1E0,-7.3943126E-1,-1.1429694E0,5.7220644E-1,1.6844181E-2,7.670986E-2,-3.455603E-2,3.4176808E-2,-2.2291249E-2,8.976756E-3],"split_indices":[3,2,5,3,1,0,0,0,0,0,0],"split_type":[0,0,0,0,0,0,0,0,0,0,0],"sum_hessian":[1.1332709E2,1.0992585E2,3.401232E0,2.2515003E1,8.741085E1,1.0853472E0,2.3158848E0,3.470377E0,1.9044626E1,5.281055E1,3.4600296E1],"tree_param":{"num_deleted":"0","num_feature":"17","num_nodes":"11","size_leaf_vector":"1"}},{"base_weights":[1.10303415E-2,-7.347425E-2,2.9758122E-2,9.509322E-2,-4.8135845E-3,-1.1721632E-2,1.4675724E-2],"categories":[],"categories_nodes":[],"categories_segments":[],"categories_sizes":[],"default_left":[0,0,0,0,0,0,0],"id":96,"left_children":[1,-1,3,-1,5,-1,-1],"loss_changes":[1.6383773E0,0E0,3.6308353E0,0E0,1.9039227E0,0E0,0E0],"parents":[2147483647,0,0,2,2,4,4],"right_children":[2,-1,4,-1,6,-1,-1],